he 0.0166812 -0.0566705 0.0173668 0.127356 0.00388467 -0.0563658 0.0140915 -0.100544 0.082873 0.038085 -0.00982593 0.0551471 0.00860721 0.0289446 -0.0348859 -0.0417412 0.00765509 0.0853104 0.0962789 -0.0287923 -0.0245267 -0.0962789 -0.102982 0.0673343 0.0207182 -0.0318391 0.0231557 0.0633735 0.0688577 0.0127966 0.00422744 0.000737897 -0.00780743 -0.0779981 0.00925466 -0.0167574 -0.0134059 0.009407 0.0865291 0.0303157 -0.0478348 -0.0728185 0.0667249 0.0260501 0.00799785 -0.00590318 -0.0180523 -0.0240697 0.151731 0.00594126 0.0137868 0.138934 0.00571275 -0.0283352 -0.0220893 0.0877479 -0.115169 0.0484441 0.0258978 -0.0530143 -0.0618501 0.0364093 -0.0603267 -0.126138 -0.00875955 -0.00147579 0.0920134 0.124919 0.037171 0.0962789 0.0840917 0.00329435 0.0779981 0.053319 -0.0172906 -0.0362569 0.11456 0.00491297 -0.0956695 0.0773887 -0.0499675 -0.0895759 0.0932321 0.00910232 0.0673343 -0.125528 -0.0938415 0.0327531 0.0481395 0.0572799 -0.023765 0.0926227 0.0341242 -0.0944508 0.00891189 -0.0655062 0.0118825 -0.0396084 0.0333625 0.0217846 0.0871385 -0.0834823 0.135278 -0.121263 -0.0364093 -0.0840917 -0.165746 -0.0648969 0.0220893 -0.134669 0.0514909 0.0281829 -0.0435693 -0.0269642 0.0168336 -0.0563658 0.00342765 0.0310774 -0.0222416 0.0373233 -0.0932321 -0.0137868 -0.0207182 0.109685 -0.0414365 -0.0114255 0.00704573 -0.0263548 -0.0481395 0.0108923 -0.0655062 -0.0652015 -0.029554 -0.0184331 -0.0383897 -0.0316867 -0.0159957 -0.0594126 -0.0505769 -0.0633735 0.126138 0.0740373 -0.00176143 -0.037628 0.0140153 0.0816543 0.0502722 -0.0962789 -0.0514909 0.0999351 0.0361046 0.060936 -0.0131012 -0.0281829 -0.045702 0.00272308 -0.0566705 0.0119587 -0.0103591 -0.0313821 0.00917849 -0.00258978 0.0216323 0.0357999 0.0499675 0.00388467 0.0399131 0.0153102 0.0198042 -0.0779981 -0.0487488 -0.0153102 -0.0450927 -0.0539284 -0.0481395 0.0271165 -0.00011723 -0.0071219 -0.0618501 0.0163766 0.0333625 0.0283352 -0.0444833 0.0865291 0.0255931 0.00696956 -0.00955934 0.0205659 0.11395 0.0108923 -0.0199565 0.0673343 0.0205659 -0.021937 -0.135887 0.0636781 -0.0182808 -0.000590318 -0.00445595 -0.0164527 0.038542 -0.0105876 -0.0135583 -0.0743419 0.00567467 0.0642875 -0.00187569 0.0932321 0.0661156 -0.0251361 -0.0115017 0.022394 -0.023765 0.0354952 0.00955934 0.0123395 0.112732 0.00510339 -0.0944508 0.0201089 0.098107 0.0316867 -0.0180523 0.0274212 -0.0365616 0.00193281 -0.0078836 0.100544 0.0661156 -0.0211753 0.113341 -0.0278782 0.0213276 -0.0236127 -0.00552233 -0.0230033 0.0490535 0.0169097 0.0287923 0.0429599 0.0315344 -0.00109018 -0.0853104 -0.0956695 0.0615454 -0.100544 0.00413222 -0.0536237 -0.0109685 0.0254408 0.0186617 0.0071219 -0.0126442 -0.0402178 0.0108923 -0.0804355 -0.000216609 0.0263548 0.00205659 0.0764747 -0.0597173 0.0575845 0.0655062 -0.0776934 0.022394 0.0907947 -0.0658109 0.01432 -0.00521765 0.00289446 0.137106 -0.030925 0.148684 -0.0364093 0.0301633 0.0377803 -0.023308 -0.110904 0.0280306 -0.0263548 0.0514909 0.0688577 -0.0682483 0.0588033 -0.0450927 0.0306203 -0.0987163 0.0487488 0.0184331 -0.0755607 0.0167574 -0.0174429 0.019271 0.0252884 -0.0816543 0.0517956 0.00982593 -0.0728185 -0.018357 -0.0441786
she -0.0159699 0.0140911 -0.0227023 0.0876778 0.01049 -0.017927 -0.0155785 -0.0895566 0.0367934 0.0399247 -0.0754656 -0.0623139 -0.112102 -0.01323 -0.076405 0.0635664 0.0386722 0.0901829 -0.0403944 -0.0313135 -0.0291216 0.0219195 0.00724125 -0.028965 0.125254 -0.0245811 -0.0845465 0.0407076 -0.0120557 0.0851728 0.0366368 0.0142476 -0.030061 0.0582431 -0.112729 0.0158133 -0.0311569 0.00354234 0.0352277 0.00771095 0.0773444 0.0191012 -0.102082 0.0607482 -0.0349146 0.00684983 0.0726473 -0.0259902 0.154689 0.0820414 -0.0096289 0.0288084 -0.0820414 -0.0585563 0.0895566 0.0989507 -0.0522936 0.0105683 0.0244245 -0.0908092 0.00371848 0.0438389 -0.108971 -0.0666978 -0.0620008 0.0679503 -0.0163613 0.0389853 -0.0908092 0.114607 0.0601219 0.0870516 -0.0147173 0.0378893 0.0327226 -0.100203 0.0901829 0.156568 0.0342883 0.124628 0.0270862 -0.0798495 -0.00495145 -0.0247377 0.0782838 -0.115234 -0.164083 -0.012682 -0.0472834 0.0964456 -0.00806323 0.0444652 -0.00908092 -0.0291216 -0.0513542 -0.062627 0.035854 0.0117426 -0.0601219 0.10584 0.041647 -0.133396 -0.0901829 0.0151871 0.0129951 0.0385156 0.0479097 -0.0236417 0.0169876 -0.00159503 0.00238766 0.0491622 -0.0299044 -0.0519804 -0.0228589 0.127759 0.0983244 0.0475965 0.0255205 0.0407076 -0.0682634 -0.0250508 -0.0713948 -0.0138562 -0.0355408 -0.05793 -0.00252465 -0.0729605 0.0795363 0.0785969 0.0350711 -0.0466571 -0.114607 0.0457177 -0.0428995 0.0196492 -0.00497102 0.0250508 0.0277125 -0.0333489 -0.0158916 0.13089 -0.0435258 0.0233286 0.0422732 0.0198841 0.00544072 -0.125254 -0.0016146 0.118365 0.0920617 0.0516673 -0.00786752 0.0454046 -0.0199624 -0.0136214 -0.0814151 -0.118365 0.0158133 0.055738 -0.00309221 0.0701423 -0.035854 0.12588 0.0366368 0.0679503 0.0504148 -0.0604351 -0.0569906 -0.0501016 -0.121496 0.00403161 0.00743696 -0.0374196 -0.0767181 -0.0620008 -0.00405119 0.0479097 -0.0507279 0.0676372 0.0199624 -0.00951148 0.044152 0.0211366 -0.07891 -0.0344449 -0.00587128 -0.0366368 0.0447783 -0.0413338 -0.000777945 -0.0320963 -0.039455 -0.0391419 -0.00391419 -0.0082198 -0.085799 0.00495145 -0.0914354 -0.116486 0.0223892 0.0407076 -0.0205103 -0.0601219 0.0198058 -0.0432126 -0.0302175 -0.0310004 0.0748393 0.00872864 -0.0186315 -0.0767181 0.0244245 0.0598088 -0.00344449 0.00165374 0.0281822 0.127759 -0.092688 0.00735867 0.0015461 0.064819 0.0541724 0.00610613 -0.0342883 -0.0125254 -0.0252074 -0.0356974 0.118991 0.0108814 0.0598088 -0.0310004 0.016283 0.0150305 -0.0191795 -0.0259902 0.00567557 0.0591825 0.0155785 0.0155002 -0.103335 0.101456 0.0211366 -0.0396116 0.0488491 0.0569906 0.129012 0.0454046 -0.0507279 0.035854 0.00279865 0.00955062 0.113355 -0.00491231 -0.018475 -0.0428995 0.0522936 -0.00688897 -0.0535461 0.0679503 0.0248942 0.0245811 -0.0201972 0.0316266 0.0152653 0.0501016 0.0079458 -0.0206669 0.0419601 0.0374196 0.0883041 -0.0205103 -0.0361671 -0.0460309 0.0547986 0.0180836 0.00129168 -0.0454046 0.0222326 -0.0256771 -0.0200406 0.0573037 -0.0258336 0.0294347 0.0704554 0.0516673 -0.0563643 -0.0212932 0.0314701 0.00896349 -0.0133082 0.00197667 -0.0889304 -0.0156568 -0.0598088 -0.0305307 -0.0485359 0.00692811 -0.0120557 -0.044152
bachelor 0.0223401 -0.0506708 -0.111326 0.0289547 0.0239625 0.0329485 0.0476755 -0.161747 0.0122309 -0.0304524 0.0529173 -0.0431825 -0.086365 0.0384399 0.0050234 -0.00327613 0.0913572 -0.00287051 -0.00592823 -0.0381903 -0.0399376 0.046677 0.00402496 -0.0546646 0.0611544 -0.035195 -0.0354446 0.0978471 -0.00992199 -0.0459282 0.0247114 0.00739469 0.040936 -0.0476755 -0.0366927 0.00780031 0.0933541 -0.0459282 -0.0346958 0.0302028 -0.0529173 -0.0758814 0.0190952 0.0421841 -0.0723869 -0.0728861 -0.0152262 -0.0162246 0.00639625 0.0195944 -0.0803744 0.0214664 0.149766 -0.0983463 -0.0334477 -0.0546646 -0.0185959 -0.138783 -0.031326 -0.0282059 -0.0168487 0.0968486 0.0459282 -0.0344462 -0.0668954 0.0584087 -0.0531669 -0.0561622 0.0158502 0.0162246 0.0152886 -0.0222153 0.00936037 0.000635725 -0.0188455 0.120312 -0.0698908 0.0339469 -0.00391576 0.0149766 -0.00361934 0.00789391 -0.00967238 0.00201248 -0.0200936 0.00648986 -0.0823713 0.0978471 0.0639001 -0.0149766 -0.0218409 -0.0419345 -0.0933541 -0.0444306 -0.00879875 0.0693915 0.0331981 -0.0304524 -0.0584087 -0.0232137 0.0199688 0.0245866 -0.054415 -0.0918564 0.0733853 -0.148767 0.0130421 0.0349454 0.0174727 -0.0399376 0.0132917 0.0295788 0.0948517 0.0559126 -0.0132917 0.0616536 -0.01922 0.0376911 0.0551638 -0.00648986 -0.0534165 0.0768798 -0.0116693 -0.0129173 0.0100468 -0.108331 0.0773791 -0.0421841 0.0808736 -0.00929797 0.0324493 -0.0127301 0.0519189 -0.0506708 -0.0117941 0.0214664 0.061404 0.110328 0.0873635 0.0576599 -0.0973478 0.0127301 0.0604056 0.0253354 -0.0486739 0.104836 -0.049922 0.12131 0.00645866 0.0421841 0.0793759 0.015975 0.00287051 0.00521061 -0.0639001 -0.152761 -0.0356942 0.0948517 0.118814 -0.0145398 -0.0449298 0.0636505 -0.0531669 0.122309 -0.0254602 0.0429329 -0.000401716 -0.035195 0.0178471 0.0195944 -0.0288299 -0.0698908 0.0474259 -0.010858 -0.00804992 0.0113572 0.0376911 5.55772e-05 -0.0524181 -0.0733853 -0.0883619 -0.0165991 0.014103 -0.0193448 0.0149142 -0.0225897 0.0469267 -0.0220905 0.0611544 0.0172231 0.12131 0.039688 -0.0224649 0.149766 0.0868642 0.0668954 0.120312 -0.0203432 0.0389391 0.00998439 -0.0963494 -0.00461778 0.081872 -0.0823713 -0.0798752 -0.0541653 0.021092 -0.0195944 -0.0142278 0.0151014 -0.0778783 -0.0334477 0.0683931 -0.0127925 0.0233385 0.046677 -0.0506708 0.0596568 0.0481747 0.000349064 -0.0175975 -0.0429329 -0.0371919 -0.0723869 0.142777 0.0551638 0.0491731 -0.0280811 -0.0491731 -0.0609048 0.031326 0.00174727 -0.0444306 -0.0626521 0.137785 -0.0304524 -0.0183463 -0.0576599 -0.0783775 0.15975 0.0768798 0.0479251 -0.0873635 -0.000302262 -0.00296412 -0.0496724 -0.00639625 -0.0267083 -0.00695788 -0.0439313 -0.0604056 0.0389391 -0.00137285 0.00942277 -0.0903588 0.0586583 -0.0299532 0.00677067 -0.0758814 0.0024961 0.0164743 -0.0446802 0.0524181 0.040936 0.0237129 0.0288299 -0.0203432 -0.0312012 -0.0798752 -0.024961 -0.00158346 -0.0278315 0.0653978 -0.0224649 0.0162246 -0.0648986 -0.0130421 -0.000596724 -0.105335 0.0928549 0.0758814 -0.0304524 -0.0339469 0.0321997 -0.0331981 -0.0157254 0.0586583 -0.000620125 0.0768798 0.0631513 -0.0663962 0.0743837 -0.0778783 -0.0341966 0.110328 -0.0419345 0.0244618 -0.0229641 0.10883 0.126303
