in 0.0529562 0.0654598 0.0661953 0.0470722 0.0522207 -0.0820086 -0.0614145 -0.11621 0.0156294 0.0992929 -0.0856861 -0.028133 0.0522207 0.0588403 -0.0775956 -0.0735503 0.0332815 0.0772278 -0.0457851 -0.0272136 -0.0342009 0.0356719 -0.0908346 -0.0481755 0.00170085 0.0279491 -0.00219502 0.0886281 0.0465206 0.0481755 0.0610468 -0.051853 -0.0160891 0.0415559 -0.0643565 0.051853 -0.0963509 -0.0250071 0.0742858 0.132391 0.0834796 -0.0261104 -0.035488 -0.00638968 0.0270297 0.0775956 0.0203183 -0.0216054 -0.00386139 0.0801698 0.0450496 0.0709761 0.0253749 -0.0204102 -0.0709761 0.000775726 -0.0364074 0.0259265 0.0610468 -0.0853184 -0.0669308 0.0270297 -0.10959 -0.183876 -0.0463367 0.039901 0.0428431 0.135333 0.0459689 0.0654598 0.0934089 -0.0303395 0.0170085 0.133862 -0.0223409 -0.0223409 0.0882604 0.0234442 -0.0724471 0.0500142 0.00353961 -0.0603113 0.04744 -0.0155375 -0.0411882 -0.102235 -0.0478077 0.0628855 -0.0481755 0.0161811 0.0581048 -0.0279491 -0.0253749 -0.138275 -0.054795 0.0119519 0.0702406 -0.0463367 -0.0107108 -0.00259725 0.00836635 -0.119152 -0.0128713 0.00466585 -0.00657356 -0.060679 -0.0114922 -0.0661953 0.00262023 -0.0121358 -0.00928573 0.0735503 -0.105177 -0.0647243 -0.0202263 0.0406366 0.100028 0.0849506 0.0912024 0.0643565 -0.00535538 0.0336493 -0.10959 -0.00241337 -0.0886281 -0.0492787 0.0536917 -0.0709761 -0.0228006 0.0904669 0.0603113 -0.0713438 -0.122094 -0.0584725 0.0159972 -0.0614145 0.002965 -0.118416 -0.0739181 0.0299718 0.029604 -0.00684937 0.0775956 0.0511175 -0.0321783 0.0478077 -0.036959 0.0157214 -0.125771 0.0702406 0.0706083 0.00517151 0.0404527 0.0395333 -0.0183876 -0.0244555 -0.0463367 -0.00418317 0.0724471 0.0285007 0.00919379 -0.0330976 -0.0056312 0.0794343 0.0153536 0.10959 0.0617823 0.00434407 0.00344767 -0.0698728 -0.104441 -0.0432108 -0.0387978 -0.0985574 -0.105177 -0.0154456 -0.0204102 0.0246394 0.0790666 -0.00175831 -0.0170085 0.000379244 -0.0834796 0.0639888 -0.0978219 -0.0131471 -0.000270068 0.0812731 0.0669308 0.0336493 0.0189392 0.0179279 0.0610468 0.017836 -0.0827441 0.00404527 -0.013331 -0.0255587 -0.0248232 -0.123565 0.0720793 -0.0137907 0.0039993 -0.0259265 -0.0332815 -0.0500142 -0.0135149 -0.0223409 -0.00572313 -0.0386139 -0.0408204 0.0672985 -0.0540595 0.0114922 -0.06215 -0.0239039 0.0268459 -0.0159972 -0.0446818 -0.00983736 0.0353042 0.0173763 0.0158133 -0.059208 -0.0060679 0.0147101 -0.00418317 0.0312589 0.0209618 0.0102511 0.0261104 -0.137539 0.0904669 0.0558982 -0.0308911 -0.00749294 0.0323621 -0.00549329 0.0926734 0.0433947 -0.0402688 -0.0242716 -0.00684937 -0.0351203 0.0330976 -0.0382462 0.051853 0.00225248 -0.00314887 -0.0332815 0.0555305 -0.00960751 0.0507497 0.0047348 0.0566337 -0.0285007 0.00367752 0.0336493 -0.0507497 0.00730906 0.00356259 0.0154456 0.0536917 0.128713 0.13092 0.0419237 0.0687696 -0.028133 0.0375107 -0.029604 0.0332815 0.0470722 0.0365913 -0.0400849 0.0367752 -0.0985574 -0.0217893 -0.0272136 -0.0457851 -0.0432108 0.0926734 -0.06215 -0.00896395 0.0941444 0.00102281 0.0481755 -0.0801698 -0.108119 -0.0318105 0.0181118 -0.127242 -0.0669308 -0.060679 0.048911 0.0461528 -0.0356719 -0.0443141 -0.0358558 0.0108946 -0.0470722
for -0.00851202 -0.0342245 0.0322839 0.0458679 -0.0131429 -0.0462207 -0.00094823 -0.0522188 0.0465735 0.0624509 -0.122785 -0.0287556 0.0515131 -0.0187 0.0131429 0.0987923 0.104438 -0.0243453 -0.070566 -0.0867961 -0.0575113 0.0451622 -0.0483377 0.0536301 0.0164066 0.0241688 -0.130547 0.0375764 0.0100115 0.0670377 0.00253596 -0.00657145 -0.0702131 0.0490433 -0.00635094 0.0319311 -0.0966754 -0.0719773 0.0239924 0.0201995 0.1122 -0.0127901 0.0103203 -0.0793867 -0.0617452 -0.0529245 -0.0178179 0.124902 0.044633 0.0645678 -0.0175533 0.102321 -0.023816 0.0198467 -0.1122 0.00568938 -0.0511603 0.0315783 0.00434422 -0.040399 -0.106555 0.0205523 -0.0959697 -0.127724 -0.0659792 -0.0366943 -0.0187882 -0.10726 -0.0582169 0.108672 -0.0314019 0.0571584 0.0239924 0.0652735 0.0164066 -0.0451622 0.118551 0.062098 -0.00895306 0.141838 -0.0449858 0.0162302 -0.0217872 0.0153481 0.00240365 -0.0400462 -0.0529245 0.0215226 0.0359886 0.0126137 0.0755056 0.02805 0.0613924 -0.179238 0.0501018 -0.107966 0.0421632 0.0691546 -0.0241688 0.045515 0.0154363 -0.105143 0.0388113 -0.0656263 -0.0183471 0.0328132 0.00383702 -0.0836207 -0.0141132 0.0875018 0.0232868 0.068449 -0.0465735 0.0164066 0.0871489 0.0435745 0.0871489 0.035283 0.0673905 0.0483377 0.0211698 -0.0246981 -0.0804452 0.0386349 -0.0185236 0.0128783 0.0449858 -0.0187 0.105143 0.0451622 0.0779754 -0.117845 -0.070566 -0.0765641 -0.0617452 -0.064215 0.0730358 -0.0575113 0.00608631 0.0173769 0.0945584 0.0370471 0.0589226 0.0677433 -0.0423396 -0.0698603 -0.0204641 -0.105143 -0.106555 0.105143 -0.0127019 0.023816 -0.0617452 -0.00793867 -0.0268151 -0.00987923 0.025933 -0.005954 0.0363415 -0.068449 0.0345773 0.0149953 0.0221401 0.0938527 0.0381056 0.0135839 -0.0127019 0.0252273 0.0132311 -0.0071448 -0.13337 -0.0649207 -0.0209934 -0.0439273 -0.0370471 -0.00170902 0.0479848 -0.0596282 -0.028932 0.0695075 -0.111494 -0.110789 0.0204641 0.0094823 0.0216108 -0.00877664 -0.0698603 0.0179061 0.139721 0.00939409 0.0174651 -0.025933 0.0712716 -0.0698603 -0.14466 -0.00996744 0.062098 -0.0578641 -0.127724 -0.126313 0.00370471 -0.0252273 -0.0395169 0.0677433 -0.0673905 -0.00864433 -0.000407959 0.070566 0.0179061 -0.0287556 0.0070566 0.0853848 0.0186118 0.0889131 0.0465735 0.0511603 0.0211698 -0.0358122 -0.0564528 0.0209052 0.0329896 -0.031049 0.0187 -0.0374 0.101615 0.00308726 -0.0273443 0.0198467 0.0433981 0.0204641 0.0202877 -0.0264622 0.0945584 -6.99457e-05 -0.0501018 -0.0159655 0.0490433 -0.0168476 -0.01107 -0.0421632 0.0441037 0.000465846 0.00288879 -0.0515131 0.066332 0.0189646 0.014466 0.0255802 -0.0418103 -0.0214344 0.0197585 0.0181707 0.0435745 0.095264 -0.00315342 0.00197364 0.0432216 0.0712716 -0.066332 -0.033166 -0.0126137 0.0276971 -0.0138486 0.0335188 0.0345773 0.0709188 -0.0291085 0.0680961 -0.0250509 -0.0305198 0.0508075 -0.00987923 0.0769169 0.011908 0.095264 -0.00122388 -0.00613042 -0.103026 -0.0336952 -0.0793867 0.0592754 -0.0296377 -0.0136722 0.0635094 -0.00202877 0.172181 -0.0340481 -0.016583 0.0294613 0.0211698 -0.0163184 0.00269033 -0.0596282 0.0589226 0.00573348 0.00034456 0.0133193 0.0515131 -0.0252273 0.0174651
that -0.0123606 -0.0222299 0.0655398 0.0394772 -0.0866199 0.0249128 -0.0111628 -0.0705224 0.092369 0.0927522 -0.0563412 -0.0605572 -0.0540416 0.0605572 -0.10885 0.00510233 0.00862366 -0.0118815 -0.00075457 -0.023763 -0.000124265 0.030087 -0.0189721 -0.0360277 0.0743551 -0.0433099 -0.0509754 0.00479092 0.000670729 0.0486758 -0.042735 0.011067 0.017439 -0.0352612 0.0873864 -0.0302786 0.0402437 0.0197386 0.0133188 0.0494423 0.108083 0.10655 0.0513587 -0.0505921 -0.0188762 -0.0104921 -0.0291288 0.0033776 -0.0123606 0.0149477 0.0850868 0.0350695 -0.0352612 -0.0747384 0.0682227 0.06439 0.00536583 -0.103484 0.00214394 -0.0594074 0.0176306 0.134912 -0.0381357 0.030087 -0.0693725 -0.0135104 0.0171515 0.105017 0.00838411 0.0390939 0.0298954 -0.00412019 0.0481009 -0.0392856 -0.0831704 0.0436932 0.121114 0.134146 0.0377525 0.0996512 0.0640067 -0.0797209 0.0344946 -0.0106358 -0.105017 -0.123414 0.0190679 0.164041 -0.0801042 -0.0735886 0.0381357 0.0590242 0.00276676 -0.0969683 -0.0189721 -0.00103604 0.030087 0.0059647 0.0138937 0.034303 -0.077038 -0.0456096 0.011067 0.032195 -0.0277873 -0.0180139 -0.102717 -0.113449 0.022709 -0.0962017 -0.055958 -0.00560538 -0.0758882 0.0459928 0.0816373 0.0206968 0.00594074 0.0283623 0.0316201 0.0413936 -0.160208 -0.0262542 -0.0228048 0.0249128 -0.0969683 -0.0528918 0.0124564 -0.0678395 0.00982139 -0.0494423 -0.0946686 0.0183971 -0.103484 -0.0927522 -0.00953393 -0.0862366 0.0747384 -0.0329615 0.0143728 0.040627 0.0117378 -0.124947 -0.0170557 -0.00402437 0.0281706 -0.00238348 -0.0613238 -0.0402437 -0.00582097 0.068606 -0.0187804 0.0346863 -0.0893028 0.016864 -0.0030063 -0.0341114 -0.0816373 -0.145644 -0.0352612 0.0352612 -0.0348779 0.0149477 -0.0164808 0.0105879 0.0119773 -0.0238588 0.0366026 0.0804875 -0.0108754 0.00646774 -0.0413936 0.0154268 -0.0597907 -0.0705224 0.0344946 0.0062282 0.00991721 -0.0850868 -0.0145644 -0.0820206 -0.119581 -0.0620903 -0.0226132 -0.0146602 0.0762715 -0.00656356 -0.0277873 0.00591679 0.0456096 0.06439 0.0226132 0.0400521 0.00249128 -0.0145644 0.0117378 -0.0571078 -0.0268292 0.0344946 -0.0383274 -0.12648 0.0201219 0.0287455 -0.000120522 -0.000988128 -0.0312368 -0.0252961 -0.0123606 0.0477176 0.0762715 -0.0117857 -0.0264459 -0.0120252 0.00366506 0.025871 -0.06439 0.0835537 0.121114 0.00689893 -0.0942853 0.0481009 0.0459928 0.0304703 -0.0125522 -0.0344946 0.0942853 -0.0590242 0.0981181 0.0275957 0.0571078 0.068606 0.0165766 -0.0578743 0.0270208 -0.0739718 0.00910275 -0.044843 -0.0617071 0.0125522 0.0594074 0.0239546 0.00361715 -0.114216 -0.0194511 -0.0847035 0.0540416 0.0456096 0.0981181 -0.0513587 0.00414415 0.00929439 0.0548081 0.0996512 0.0513587 -0.0136062 0.0935188 -0.0254877 0.113449 0.060174 -0.0252961 -0.051742 0.0494423 -0.049059 -0.0755049 0.0835537 -0.0312368 0.0912191 -0.00761757 -0.0277873 -0.0513587 0.0461845 0.127247 0.0402437 0.124947 0.0747384 0.0597907 -0.0720555 0.0197386 -0.0617071 0.0701391 -0.0459928 -0.0314284 0.0360277 0.0243379 0.0306619 0.027979 -0.0831704 -0.0291288 -0.12648 0.0167682 0.000958184 -0.00886321 -0.0122648 -0.0262542 -0.0161933 -0.0152351 0.0502089 0.01581 0.00538979 0.0479092 -0.116515
is 0.00374603 -0.0389198 0.0913317 0.0120003 -0.0705745 0.105343 0.0599364 -0.0573418 0.0381414 0.0110921 -0.0653852 -0.0313953 0.0537093 0.00570823 0.0762828 0.138035 -0.0193302 0.0985968 -0.0417739 -0.0120651 -0.0640879 0.0944453 0.0263357 0.00914615 0.0422928 -0.02426 -0.100154 0.100672 -0.0123246 0.033471 0.051893 -0.0101191 -0.0420334 0.0809531 0.0923696 0.0539687 -0.0866614 0.0609743 0.0534498 -0.0492984 0.0581202 0.0312655 -0.0114813 0.0337305 0.022314 -0.00470281 0.0171247 0.0565634 0.0342494 -0.06305 0.0162166 0.0355467 0.0648663 -0.0441091 0.0913317 0.0417739 0.0505957 -0.00413523 0.0123246 0.0124543 -0.00895155 0.0825099 -0.0583797 -0.0939264 -0.0617527 0.0124543 -0.00564337 0.0280222 -0.0710934 0.0422928 0.0391792 0.0233519 0.0612338 -0.0109624 0.0396982 -0.00612986 0.0428117 0.0221843 0.0425523 0.186815 0.0513741 -0.113127 0.0876992 -0.0415144 0.0371035 -0.000741908 -0.04852 0.0690177 0.133884 -0.00856235 0.0495578 -0.0778395 -0.00080272 -0.0804342 -0.0142706 -0.0835478 0.0140111 0.0456659 0.0381414 0.0409955 -0.0207572 0.0289304 -0.0679799 0.04852 -0.0980778 -0.0199788 -0.0148544 -0.0477416 -0.0620122 -0.052412 0.0255573 -0.0861424 -0.0578607 0.0451469 -0.02426 0.0840667 -0.0202383 -0.0435901 0.107937 0.0459253 0.036844 0.0171247 -0.0851046 0.0503362 -0.013103 0.0288006 0.0148544 0.0238708 0.0902939 0.0386603 -0.0193302 -0.00544877 -0.00908128 -0.0570823 -0.000372981 -0.0391792 0.134922 0.030098 0.0186815 -0.00457307 0.0985968 0.0114165 0.140111 -0.0126489 -0.0526714 -0.0219248 -0.036844 -0.0604554 0.0265952 -0.0312655 0.0245195 0.0464443 0.0560445 0.0565634 0.0148544 0.0503362 0.0617527 -0.0918507 -0.0185518 -0.110532 0.0316547 0.0552661 -0.000952724 0.0311358 -0.0158274 -0.0199788 0.0258168 -0.0339899 0.0422928 0.036844 -0.055785 -0.0768017 0.0230924 -0.0365846 -0.018941 -0.00622716 0.00726502 -0.0350278 0.0633095 0.0166058 -0.0246492 -0.00104597 0.00390819 -0.030098 0.0147895 0.0438496 -0.00716772 0.0381414 0.0768017 0.0679799 0.0224437 0.0752449 -0.00960021 0.0114813 -0.0487794 0.0710934 -0.103786 -0.0267249 -0.0201085 -0.0511146 0.0547471 -0.0568229 -0.0783585 0.0529309 -0.122468 0.120911 -0.0399576 0.0345089 0.0487794 0.0249087 0.033471 0.0371035 0.0245195 0.0516336 -0.107419 0.105862 0.0991157 -0.063569 -0.0757638 0.0799153 -0.0179031 -0.0773206 -0.0003669 -0.0389198 0.0710934 0.018941 -0.0121949 0.0147246 -0.0420334 0.110013 -0.0443685 -0.0263357 0.0167355 0.0788774 0.029579 -0.0238708 -0.0422928 0.00252979 -0.0110273 0.0319142 0.00252979 0.00593527 0.0918507 -0.0716124 0.0163463 -0.0422928 0.0480011 0.0324331 0.0409955 -0.0267249 -0.0490389 -0.142187 0.0573418 0.0456659 0.033471 0.0573418 -0.0142057 0.0542282 -0.0640879 0.028152 0.0503362 -0.0876992 0.0234816 0.0384008 0.0219248 0.226254 -0.0547471 -0.0851046 -0.0480011 -0.0339899 -0.0255573 0.0768017 0.0347683 0.026206 0.0288006 0.0721313 -0.0102489 -0.114684 -0.0394387 -0.0778395 0.00609743 -0.0876992 -0.055785 0.00170274 0.0716124 -0.00210815 -0.0550066 -0.074207 0.0555255 -0.00668123 -0.124024 -0.0193302 -0.0498173 0.09704 0.0144003 0.0679799 -0.0131679 0.0059677 0.0871803 0.0568229
on 0.0166812 -0.0566705 0.0173668 0.127356 0.00388467 -0.0563658 0.0140915 -0.100544 0.082873 0.038085 -0.00982593 0.0551471 0.00860721 0.0289446 -0.0348859 -0.0417412 0.00765509 0.0853104 0.0962789 -0.0287923 -0.0245267 -0.0962789 -0.102982 0.0673343 0.0207182 -0.0318391 0.0231557 0.0633735 0.0688577 0.0127966 0.00422744 0.000737897 -0.00780743 -0.0779981 0.00925466 -0.0167574 -0.0134059 0.009407 0.0865291 0.0303157 -0.0478348 -0.0728185 0.0667249 0.0260501 0.00799785 -0.00590318 -0.0180523 -0.0240697 0.151731 0.00594126 0.0137868 0.138934 0.00571275 -0.0283352 -0.0220893 0.0877479 -0.115169 0.0484441 0.0258978 -0.0530143 -0.0618501 0.0364093 -0.0603267 -0.126138 -0.00875955 -0.00147579 0.0920134 0.124919 0.037171 0.0962789 0.0840917 0.00329435 0.0779981 0.053319 -0.0172906 -0.0362569 0.11456 0.00491297 -0.0956695 0.0773887 -0.0499675 -0.0895759 0.0932321 0.00910232 0.0673343 -0.125528 -0.0938415 0.0327531 0.0481395 0.0572799 -0.023765 0.0926227 0.0341242 -0.0944508 0.00891189 -0.0655062 0.0118825 -0.0396084 0.0333625 0.0217846 0.0871385 -0.0834823 0.135278 -0.121263 -0.0364093 -0.0840917 -0.165746 -0.0648969 0.0220893 -0.134669 0.0514909 0.0281829 -0.0435693 -0.0269642 0.0168336 -0.0563658 0.00342765 0.0310774 -0.0222416 0.0373233 -0.0932321 -0.0137868 -0.0207182 0.109685 -0.0414365 -0.0114255 0.00704573 -0.0263548 -0.0481395 0.0108923 -0.0655062 -0.0652015 -0.029554 -0.0184331 -0.0383897 -0.0316867 -0.0159957 -0.0594126 -0.0505769 -0.0633735 0.126138 0.0740373 -0.00176143 -0.037628 0.0140153 0.0816543 0.0502722 -0.0962789 -0.0514909 0.0999351 0.0361046 0.060936 -0.0131012 -0.0281829 -0.045702 0.00272308 -0.0566705 0.0119587 -0.0103591 -0.0313821 0.00917849 -0.00258978 0.0216323 0.0357999 0.0499675 0.00388467 0.0399131 0.0153102 0.0198042 -0.0779981 -0.0487488 -0.0153102 -0.0450927 -0.0539284 -0.0481395 0.0271165 -0.00011723 -0.0071219 -0.0618501 0.0163766 0.0333625 0.0283352 -0.0444833 0.0865291 0.0255931 0.00696956 -0.00955934 0.0205659 0.11395 0.0108923 -0.0199565 0.0673343 0.0205659 -0.021937 -0.135887 0.0636781 -0.0182808 -0.000590318 -0.00445595 -0.0164527 0.038542 -0.0105876 -0.0135583 -0.0743419 0.00567467 0.0642875 -0.00187569 0.0932321 0.0661156 -0.0251361 -0.0115017 0.022394 -0.023765 0.0354952 0.00955934 0.0123395 0.112732 0.00510339 -0.0944508 0.0201089 0.098107 0.0316867 -0.0180523 0.0274212 -0.0365616 0.00193281 -0.0078836 0.100544 0.0661156 -0.0211753 0.113341 -0.0278782 0.0213276 -0.0236127 -0.00552233 -0.0230033 0.0490535 0.0169097 0.0287923 0.0429599 0.0315344 -0.00109018 -0.0853104 -0.0956695 0.0615454 -0.100544 0.00413222 -0.0536237 -0.0109685 0.0254408 0.0186617 0.0071219 -0.0126442 -0.0402178 0.0108923 -0.0804355 -0.000216609 0.0263548 0.00205659 0.0764747 -0.0597173 0.0575845 0.0655062 -0.0776934 0.022394 0.0907947 -0.0658109 0.01432 -0.00521765 0.00289446 0.137106 -0.030925 0.148684 -0.0364093 0.0301633 0.0377803 -0.023308 -0.110904 0.0280306 -0.0263548 0.0514909 0.0688577 -0.0682483 0.0588033 -0.0450927 0.0306203 -0.0987163 0.0487488 0.0184331 -0.0755607 0.0167574 -0.0174429 0.019271 0.0252884 -0.0816543 0.0517956 0.00982593 -0.0728185 -0.018357 -0.0441786
with -0.0159699 0.0140911 -0.0227023 0.0876778 0.01049 -0.017927 -0.0155785 -0.0895566 0.0367934 0.0399247 -0.0754656 -0.0623139 -0.112102 -0.01323 -0.076405 0.0635664 0.0386722 0.0901829 -0.0403944 -0.0313135 -0.0291216 0.0219195 0.00724125 -0.028965 0.125254 -0.0245811 -0.0845465 0.0407076 -0.0120557 0.0851728 0.0366368 0.0142476 -0.030061 0.0582431 -0.112729 0.0158133 -0.0311569 0.00354234 0.0352277 0.00771095 0.0773444 0.0191012 -0.102082 0.0607482 -0.0349146 0.00684983 0.0726473 -0.0259902 0.154689 0.0820414 -0.0096289 0.0288084 -0.0820414 -0.0585563 0.0895566 0.0989507 -0.0522936 0.0105683 0.0244245 -0.0908092 0.00371848 0.0438389 -0.108971 -0.0666978 -0.0620008 0.0679503 -0.0163613 0.0389853 -0.0908092 0.114607 0.0601219 0.0870516 -0.0147173 0.0378893 0.0327226 -0.100203 0.0901829 0.156568 0.0342883 0.124628 0.0270862 -0.0798495 -0.00495145 -0.0247377 0.0782838 -0.115234 -0.164083 -0.012682 -0.0472834 0.0964456 -0.00806323 0.0444652 -0.00908092 -0.0291216 -0.0513542 -0.062627 0.035854 0.0117426 -0.0601219 0.10584 0.041647 -0.133396 -0.0901829 0.0151871 0.0129951 0.0385156 0.0479097 -0.0236417 0.0169876 -0.00159503 0.00238766 0.0491622 -0.0299044 -0.0519804 -0.0228589 0.127759 0.0983244 0.0475965 0.0255205 0.0407076 -0.0682634 -0.0250508 -0.0713948 -0.0138562 -0.0355408 -0.05793 -0.00252465 -0.0729605 0.0795363 0.0785969 0.0350711 -0.0466571 -0.114607 0.0457177 -0.0428995 0.0196492 -0.00497102 0.0250508 0.0277125 -0.0333489 -0.0158916 0.13089 -0.0435258 0.0233286 0.0422732 0.0198841 0.00544072 -0.125254 -0.0016146 0.118365 0.0920617 0.0516673 -0.00786752 0.0454046 -0.0199624 -0.0136214 -0.0814151 -0.118365 0.0158133 0.055738 -0.00309221 0.0701423 -0.035854 0.12588 0.0366368 0.0679503 0.0504148 -0.0604351 -0.0569906 -0.0501016 -0.121496 0.00403161 0.00743696 -0.0374196 -0.0767181 -0.0620008 -0.00405119 0.0479097 -0.0507279 0.0676372 0.0199624 -0.00951148 0.044152 0.0211366 -0.07891 -0.0344449 -0.00587128 -0.0366368 0.0447783 -0.0413338 -0.000777945 -0.0320963 -0.039455 -0.0391419 -0.00391419 -0.0082198 -0.085799 0.00495145 -0.0914354 -0.116486 0.0223892 0.0407076 -0.0205103 -0.0601219 0.0198058 -0.0432126 -0.0302175 -0.0310004 0.0748393 0.00872864 -0.0186315 -0.0767181 0.0244245 0.0598088 -0.00344449 0.00165374 0.0281822 0.127759 -0.092688 0.00735867 0.0015461 0.064819 0.0541724 0.00610613 -0.0342883 -0.0125254 -0.0252074 -0.0356974 0.118991 0.0108814 0.0598088 -0.0310004 0.016283 0.0150305 -0.0191795 -0.0259902 0.00567557 0.0591825 0.0155785 0.0155002 -0.103335 0.101456 0.0211366 -0.0396116 0.0488491 0.0569906 0.129012 0.0454046 -0.0507279 0.035854 0.00279865 0.00955062 0.113355 -0.00491231 -0.018475 -0.0428995 0.0522936 -0.00688897 -0.0535461 0.0679503 0.0248942 0.0245811 -0.0201972 0.0316266 0.0152653 0.0501016 0.0079458 -0.0206669 0.0419601 0.0374196 0.0883041 -0.0205103 -0.0361671 -0.0460309 0.0547986 0.0180836 0.00129168 -0.0454046 0.0222326 -0.0256771 -0.0200406 0.0573037 -0.0258336 0.0294347 0.0704554 0.0516673 -0.0563643 -0.0212932 0.0314701 0.00896349 -0.0133082 0.00197667 -0.0889304 -0.0156568 -0.0598088 -0.0305307 -0.0485359 0.00692811 -0.0120557 -0.044152
actress -0.00948292 -0.0404605 -0.0418653 -0.00505756 0.0248663 0.0932838 -0.0279571 -0.0349814 0.0110283 -0.0255688 0.0157346 -0.0623765 -0.0168585 0.0415844 -0.0258497 0.0949697 0.04608 -0.0769873 -0.0449561 0.0169288 -0.0390556 0.0500136 -0.0730536 -0.0882263 0.0635004 -0.0324527 0.00821853 0.0147512 -0.034841 -0.0747395 -0.0724917 -0.0332956 -0.0660292 0.0113093 0.0550712 -0.0370888 0.106209 0.0654673 -0.0219161 0.06912 -0.00583024 -0.0435512 0.0427083 -0.0136273 0.0169288 -0.00207219 -0.0612526 0.104523 0.104523 0.0663102 0.0410224 -0.00384585 -0.0500136 0.0275356 -0.0491707 -0.0334361 0.0142595 -0.0302049 -0.0842926 -0.0310478 0.0261307 0.0871024 -0.0449561 0.0393366 0.0587239 0.146107 0.0259902 0.149479 0.101713 0.0273951 0.0710868 0.0373697 -0.0724917 0.0882263 -0.079797 0.0365268 0.0362458 -0.0122224 -0.016718 0.068277 -0.0615336 -0.0304858 0.0355434 -0.130373 -0.0646243 0.121943 -0.0379317 0.108457 0.0289405 -0.0522614 -0.0250068 -0.00783219 -0.0716487 -0.0278166 -0.00208097 0.0155941 -0.00370536 -0.0146107 0.034279 0.0127141 -0.0271141 -0.0169288 0.028519 -0.169709 0.0983414 -0.023321 -0.0421463 -0.0927219 0.111828 0.0088156 -0.0309073 -0.0160858 0.0654673 0.0133463 -0.0206517 -0.0398985 -0.0584429 -0.0741775 0.0252878 0.00895609 0.0587239 -0.0404605 -0.00523317 0.00491707 0.0415844 0.0382127 -0.0332956 0.0595668 -0.0612526 0.000150366 -0.00751609 -0.0620956 -0.0206517 0.117448 0.00611122 -0.0288 0.0254283 -0.067996 0.00484683 -0.104523 0.0293619 0.0401795 0.0429892 0.0243044 -0.0304858 0.0160156 -0.0029678 0.175329 -0.0747395 -0.0601287 0.0362458 -0.0865404 0.0320312 -0.0618146 -0.0334361 -0.0592858 -0.0415844 -0.0598478 0.0275356 0.0164371 0.0337171 0.0764253 0.166337 0.156222 -0.0556331 -0.0286595 -0.0121522 -0.0491707 -0.0311883 0.0120117 0.0221971 -0.00516292 0.000741951 0.00307317 -0.067996 -0.0876643 0.124191 -0.0200897 0.0561951 0.0241639 -0.0601287 0.0559141 0.0254283 -0.0595668 0.045237 -0.00172975 -0.068558 0.0259902 -0.0129249 -0.0344195 -0.0435512 0.028238 0.0231805 0.0899121 0.0438322 0.0413034 0.0302049 0.0245853 0.0354029 -0.0441131 0.0259902 -0.0831687 -0.0651863 0.0362458 0.06912 -0.0528234 0.0181229 0.105085 0.0196683 -0.0553522 -0.0359649 -0.00509268 0.110704 -0.0663102 -0.0435512 0.0441131 -0.0325931 0.0338575 -0.0181229 0.0117307 0.0311883 0.0390556 -0.0134166 0.091598 0.0398985 -0.0247258 0.068558 -0.123067 0.0147512 -0.0615336 -0.00565463 -0.045799 -0.130373 0.0238829 0.0899121 0.0170693 -0.010958 -0.0429892 0.0556331 0.0668721 0.0103961 -0.0899121 0.0407414 -0.0182634 0.0269736 0.0219161 -0.0713678 0.0205112 0.00839414 -0.0556331 0.0207922 -0.0536663 -0.0356839 0.133182 -0.0268332 0.0330146 -0.0324527 -0.0747395 -0.147231 -0.0545092 -0.0598478 0.0199493 0.0237424 -0.0273951 0.0640624 0.000711219 -0.0564761 0.0151727 -0.0127141 -0.0463609 -0.0272546 -0.0620956 -0.0217756 0.0334361 0.0320312 0.0719297 0.115762 0.0198088 -0.102275 -0.0206517 -0.0618146 -0.0724917 -0.0556331 0.00403902 -0.00054 0.0040917 -0.114076 -0.0195278 -0.0136273 0.139364 0.00920194 -0.0155941 -0.0477658 -0.0848546 0.0317502 0.0542283 -0.00444292 0.0539473 0.0528234 0.00153658
actresses -0.0481343 -0.0184801 -0.00916843 0.0232076 0.0515724 -0.00169222 0.00616004 -0.0633195 -0.0223481 0.0469882 0.0401119 -0.103145 0.0118187 0.0905383 -0.0316597 0.124347 0.0813698 -0.0475612 -0.053005 0.0395389 -0.0432635 -0.00709121 -0.084235 -0.0704823 0.0756396 -0.0352412 0.0297974 0.00108338 -0.0865271 -0.0383928 -0.0785047 0.0113889 -0.0406849 0.0103861 0.0350979 -0.0796508 0.0876731 0.0985606 -0.0138243 0.108302 0.00490654 -0.0521455 -0.00623167 -0.0673307 0.0111024 0.00820145 -0.0361007 0.0174057 0.0446961 0.0124633 -0.0375333 -0.0807968 -0.13065 0.084808 -0.0518589 -0.0687632 0.0381063 -0.00268606 -0.118617 -0.00562283 0.0722014 0.0733475 -0.0756396 0.0196262 0.0555836 0.0945495 0.0105294 0.171908 0.115178 0.0716284 0.0616004 0.0676172 -0.105437 0.0796508 -0.026216 0.0472747 -0.0656116 0.0160448 -0.0257862 0.0661846 -0.0484208 0.00752098 0.0285081 -0.0830889 -0.0934034 0.145549 -0.0458422 0.064179 0.0495668 -0.00401119 0.036244 -0.0412579 -0.0653251 0.00873866 -0.00691214 -0.0438366 0.0016385 -0.0253564 0.0449826 -0.0968416 -0.0330923 -0.0658981 0.0157582 -0.11919 0.0670442 0.0254997 -0.0509994 -0.0836619 0.16847 0.0163313 -0.0213453 0.0250699 0.00791494 0.0246402 0.00924006 -0.0905383 0.0242104 -0.117471 -0.0441231 -0.0154717 -0.0279351 0.0372468 0.0446961 0.0103145 -0.000617795 -0.00143257 -0.0825159 0.115751 -0.0244969 0.0383928 -0.0210587 -0.0807968 -0.0293676 0.0830889 0.00633911 -0.0263592 0.0558701 -0.0541511 0.0253564 -0.154717 0.0570162 -0.0504264 0.0342384 0.0467017 0.0349546 0.0991337 0.0412579 0.126066 -0.0504264 -0.105437 0.0319463 -0.0538645 -0.0143257 -0.0113173 0.0025249 -0.0532915 -0.0991337 -0.063606 0.0378198 -0.0352412 0.0220615 0.0219183 0.0481343 0.151279 -0.00974146 -0.0458422 -0.0484208 0.0152568 -0.0888192 0.00777168 -0.0316597 0.0147554 0.0590218 -0.0320895 -0.0112457 -0.133515 0.0899652 -0.0762126 -0.00995634 -0.0171192 0.0103861 0.0333788 -0.0398254 -0.0134661 0.0409714 -0.000257414 0.00590934 -0.0383928 0.00873866 0.0495668 -0.0313732 -0.0055512 0.00515724 0.0204857 0.0449826 0.0604543 0.0481343 0.0299407 0.0102429 -0.0421175 0.0865271 -0.0710553 -0.0773586 0.0295109 -0.0120336 -0.0283648 -0.0207722 -0.0598813 0.00399328 -0.00343816 -0.00838052 0.0229211 0.0189099 -0.0449826 -0.0329491 0.0819429 -0.0518589 0.0676172 0.0426905 0.0461287 0.0498533 0.053578 -0.0366737 0.0383928 -0.0016385 -0.0246402 0.010028 -0.124347 -0.0173341 -0.0386793 -0.0223481 -0.0253564 -0.104864 0.0830889 0.107729 -0.0154717 0.0432635 -0.0684767 0.0658981 0.00272188 0.0893922 -0.0613139 0.00217571 -0.0392523 0.0295109 -0.0395389 -0.0133945 -0.00522887 -0.0392523 0.0575892 0.0621734 -0.000738668 -0.0538645 0.064179 -0.0446961 0.0174773 -0.00070733 -0.0289379 -0.0796508 -0.0458422 -0.0616004 -0.0587353 0.041831 0.00290095 0.0633195 0.0650386 -0.0567297 0.0122485 0.0148271 -0.00827308 -0.0905383 0.0236374 -0.0762126 0.0613139 0.0997067 0.114605 0.0670442 -0.0297974 -0.0223481 0.0355277 -0.0621734 -0.021202 -0.0934034 0.0277918 0.0224913 -0.0259295 -0.0779317 -0.0699093 0.0155434 0.0664711 0.0173341 0.0521455 -0.102572 -0.00820145 -0.0139675 0.0467017 -0.00533631 0.0147554 -0.013681 0.00598097
aunt 0.0263805 -0.0511121 0.0692487 -0.000127523 0.0366029 0.0394058 -0.0600155 -0.0586965 -0.0117888 0.0387463 0.089034 -0.116074 -0.0318214 -0.0375922 -0.0219288 0.00504938 0.0166527 0.0530907 -0.0507824 0.0150039 0.0521014 0.00488451 0.120691 -0.0461658 0.0494634 -0.0672702 -0.0649619 0.0481443 -0.00939804 -0.0399004 0.00737828 -0.0207746 -0.0807902 0.0321512 -0.0349541 0.0212692 0.133881 -0.0306673 -0.0403951 0.02704 0.021599 0.0102636 0.102224 -0.0732058 0.0807902 0.00133963 -0.086396 -0.022918 -0.0334702 -0.0178892 0.0131078 -0.00366853 0.0883745 -0.0494634 0.00622414 -0.0281941 -0.102224 0.0761736 0.0379219 -0.0160756 0.0417141 -0.00272048 0.0313268 -0.00816145 -0.00282353 0.0076256 0.0154985 -0.0497931 0.0507824 -0.00882097 0.0488038 0.0183839 -0.0722165 0.068919 -0.0441873 0.158942 0.0162405 -0.0639726 0.0834282 0.0916721 0.116074 0.0196205 -0.0557287 -0.0903531 -0.0570477 0.0989267 -0.0448468 0.101565 0.0154161 -0.0342946 -0.0290185 -0.0603453 -0.0639726 -0.0125307 0.0455063 0.0137673 0.0281941 0.0359434 0.036438 -0.0962887 -0.0461658 -0.0725463 0.0748546 -0.0976077 -0.0288536 -0.0606751 -0.085077 -0.0224234 0.0682594 0.0333053 -0.0501229 0.0857365 0.0181366 -0.0197853 -0.0385814 -0.0501229 -0.0600155 -0.00389524 0.0524312 0.00832633 -0.000226707 0.0384165 -0.0206097 -0.00577073 -0.0367678 0.0422087 0.0240722 0.00172091 0.0248966 0.0227531 -0.0326458 0.018219 -0.0314917 0.0323161 -0.0352839 0.0380868 0.00791414 0.00038128 0.0540799 0.0137673 0.0781521 0.068919 -0.00123658 0.024237 0.0560585 0.125307 -0.0962887 0.0224234 -0.043198 -0.0666107 0.170154 0.0369326 0.021599 0.0344595 -0.0497931 -0.035119 -0.0199502 -0.0239073 0.0144268 -0.00278231 -0.00309146 0.0639726 0.0765033 0.0774926 0.00397768 0.0110468 0.0995862 -0.0344595 0.0916721 0.0755141 0.0420439 0.0314917 0.0286887 -0.0278644 -0.12135 -0.00601804 0.059356 0.056718 0.0530907 0.0982672 -0.028359 -0.0171473 0.0385814 0.0142619 0.0675999 -0.0222585 0.0438575 0.13454 -0.0441873 0.0220936 -0.0784819 0.0712272 0.0255561 0.0276995 0.00857365 0.100246 -0.00263805 -0.0517716 0.00181366 0.0219288 -0.108819 -0.0659511 -0.0390761 -0.0306673 0.0692487 -0.00118506 0.0413843 -0.00333878 0.0745248 -0.114755 0.00787292 0.00527609 -0.0929911 -0.0375922 0.0484741 0.0255561 -0.0303375 0.0929911 -0.0596858 -0.0468253 -0.00733706 0.0484741 0.102224 -0.0402302 -0.0204449 -0.0943101 0.0982672 -0.0153336 -0.0435278 -0.0199502 0.0370975 0.0745248 -0.123988 0.012778 0.0250614 -0.0257209 -0.0227531 -0.0910126 -0.0420439 0.0468253 -0.0240722 -0.0497931 -0.0455063 -0.0303375 -0.0040189 0.168835 0.00923316 -0.0346244 0.0758438 -0.0995862 0.0366029 0.0903531 0.0929911 0.0305024 0.0305024 -0.0755141 -0.035119 -0.00601804 -0.0639726 0.0211044 0.0313268 -0.0105522 0.0169824 -0.0603453 0.0169824 0.0857365 -0.00972779 -0.043198 -0.0237424 -0.0224234 0.0844175 0.0606751 0.0180541 0.0464956 0.0989267 -0.0504526 0.0748546 0.0120361 0.02704 -0.0577073 0.110798 -0.110138 -0.0400653 0.00704853 -0.0695785 0.0291834 0.00305024 0.089034 -0.0196205 0.133881 -0.0870555 -0.0150863 -0.125307 -0.0623238 -0.0324809 0.04056 -0.0412195 -0.0616643 0.089034 -0.0461658
aunts -0.0481172 -0.0585917 0.0415707 0.0458259 0.00499175 0.0182485 -0.0353514 -0.0671023 -0.023895 0.12373 0.104745 -0.0955798 0.00683297 0.0179212 -0.023895 -0.0225856 0.120457 0.108673 -0.0733215 0.0140751 0.0333875 0.00822412 0.114565 -0.0110473 0.0540091 -0.0671023 -0.0171847 0.0245496 -0.0157117 -0.0746308 0.0543365 -0.0556458 -0.0396067 0.0563004 -0.0028232 0.0330601 0.0981984 -0.0671023 0.0110473 0.0162846 0.0220946 0.0592464 0.0592464 -0.128967 0.0260226 -0.0261862 -0.0815047 -0.0612104 -0.0811774 0.0061374 -0.039934 0.0307688 0.0523725 0.0180849 -0.0654656 -0.011702 -0.0752855 0.0890332 0.0407524 0.00863328 0.0170211 -0.0118656 0.041898 0.0114565 0.0126021 0.0451713 0.0612104 0.00552366 -0.0307688 0.00687389 0.0851053 -0.000245496 -0.0657929 0.0733215 -0.0497539 0.142715 -0.107364 -0.0739762 0.0824867 0.0286412 -0.00366198 -0.00255725 -0.0175121 -0.0949252 -0.0507359 0.0504085 -0.117183 0.0507359 0.0161209 -0.0671023 0.00437801 -0.0981984 -0.0988531 -0.0137478 0.000560038 0.0174302 0.0762675 -0.0191487 -0.0507359 -0.100162 -0.0507359 -0.109982 0.0158754 -0.064811 -0.0180849 -0.0504085 -0.0651383 0.0458259 0.0667749 -0.0364971 -0.0315872 0.111946 0.0197215 -0.00626015 0.00443939 -0.00711939 -0.0258589 0.0132568 0.0533545 -0.0674296 -0.109982 0.100817 -0.0191487 0.0188214 -0.0739762 0.0200488 -0.0391157 0.0497539 -0.00932885 0.0376427 -0.0350241 0.0310962 0.061865 0.04288 -0.0320782 0.0595737 0.0175939 -0.0105563 0.14206 -0.0135023 0.126349 0.0243859 0.0217673 -0.0376427 0.148607 0.154499 -0.102781 0.0484446 -0.039934 -0.0585917 0.0454986 0.00834687 -0.0123566 0.0286412 0.000802977 -0.022422 -0.0756128 -0.0530272 0.00184122 -0.0192305 0.0315872 0.0324055 0.0171847 0.0723395 0.0425527 -0.0136659 0.0569551 0.0149753 0.0355151 0.0752855 -0.040425 0.00896061 0.0283139 -0.0684116 -0.0182485 0.00107916 -0.0319145 0.041407 0.0384611 0.0949252 -0.0146479 0.00556458 0.0333875 0.0851053 0.0785587 0.000480763 0.0120293 0.043862 -0.0074058 0.0220946 -0.0510632 0.0235676 -0.00793771 -0.0566278 0.0179212 0.132241 -0.00121214 -0.0120293 -0.0559731 -0.0117838 -0.0566278 0.0130113 -0.0743035 -0.0139114 0.0500812 0.0260226 0.0821594 -0.0680842 0.0513905 -0.109328 0.0513905 -0.0252043 -0.0995077 -0.00679206 0.0477899 0.0360061 -0.00916519 0.0844507 0.00214809 -0.00994259 0.0487719 0.0245496 0.118493 -0.0468079 -0.0651383 -0.0936158 0.0612104 -0.0546638 -0.01072 0.00977893 0.0471352 0.0693936 -0.0543365 0.0327328 0.0227493 -0.0785587 -0.0127658 -0.0936158 0.00154458 0.0358424 -0.0153026 -0.0382974 -0.0250406 -0.0536818 -0.0592464 0.08576 0.00990168 0.0644836 -0.0169392 -0.0674296 0.0039484 0.0654656 0.128967 0.0168574 -0.0114565 -0.112601 -0.00351878 -0.0268409 -0.0220946 -0.00317099 0.0348604 -0.00548275 -0.00855145 -0.0556458 -0.0563004 0.0464806 -0.0294595 0.0225856 -0.0772494 0.0243859 -0.0378064 0.0792134 0.00427572 0.0400977 0.219964 -0.00589191 0.083796 0.0425527 -0.0104745 -0.012684 0.0569551 -0.0602284 0.0543365 -0.0247133 -0.0360061 -0.0306052 -0.0111292 0.0667749 0.0104745 0.0533545 -0.0631743 0.0379701 -0.062847 -0.107364 0.0299505 0.0441893 -0.0510632 -0.0896879 0.102126 0.00687389
bachelor 0.0223401 -0.0506708 -0.111326 0.0289547 0.0239625 0.0329485 0.0476755 -0.161747 0.0122309 -0.0304524 0.0529173 -0.0431825 -0.086365 0.0384399 0.0050234 -0.00327613 0.0913572 -0.00287051 -0.00592823 -0.0381903 -0.0399376 0.046677 0.00402496 -0.0546646 0.0611544 -0.035195 -0.0354446 0.0978471 -0.00992199 -0.0459282 0.0247114 0.00739469 0.040936 -0.0476755 -0.0366927 0.00780031 0.0933541 -0.0459282 -0.0346958 0.0302028 -0.0529173 -0.0758814 0.0190952 0.0421841 -0.0723869 -0.0728861 -0.0152262 -0.0162246 0.00639625 0.0195944 -0.0803744 0.0214664 0.149766 -0.0983463 -0.0334477 -0.0546646 -0.0185959 -0.138783 -0.031326 -0.0282059 -0.0168487 0.0968486 0.0459282 -0.0344462 -0.0668954 0.0584087 -0.0531669 -0.0561622 0.0158502 0.0162246 0.0152886 -0.0222153 0.00936037 0.000635725 -0.0188455 0.120312 -0.0698908 0.0339469 -0.00391576 0.0149766 -0.00361934 0.00789391 -0.00967238 0.00201248 -0.0200936 0.00648986 -0.0823713 0.0978471 0.0639001 -0.0149766 -0.0218409 -0.0419345 -0.0933541 -0.0444306 -0.00879875 0.0693915 0.0331981 -0.0304524 -0.0584087 -0.0232137 0.0199688 0.0245866 -0.054415 -0.0918564 0.0733853 -0.148767 0.0130421 0.0349454 0.0174727 -0.0399376 0.0132917 0.0295788 0.0948517 0.0559126 -0.0132917 0.0616536 -0.01922 0.0376911 0.0551638 -0.00648986 -0.0534165 0.0768798 -0.0116693 -0.0129173 0.0100468 -0.108331 0.0773791 -0.0421841 0.0808736 -0.00929797 0.0324493 -0.0127301 0.0519189 -0.0506708 -0.0117941 0.0214664 0.061404 0.110328 0.0873635 0.0576599 -0.0973478 0.0127301 0.0604056 0.0253354 -0.0486739 0.104836 -0.049922 0.12131 0.00645866 0.0421841 0.0793759 0.015975 0.00287051 0.00521061 -0.0639001 -0.152761 -0.0356942 0.0948517 0.118814 -0.0145398 -0.0449298 0.0636505 -0.0531669 0.122309 -0.0254602 0.0429329 -0.000401716 -0.035195 0.0178471 0.0195944 -0.0288299 -0.0698908 0.0474259 -0.010858 -0.00804992 0.0113572 0.0376911 5.55772e-05 -0.0524181 -0.0733853 -0.0883619 -0.0165991 0.014103 -0.0193448 0.0149142 -0.0225897 0.0469267 -0.0220905 0.0611544 0.0172231 0.12131 0.039688 -0.0224649 0.149766 0.0868642 0.0668954 0.120312 -0.0203432 0.0389391 0.00998439 -0.0963494 -0.00461778 0.081872 -0.0823713 -0.0798752 -0.0541653 0.021092 -0.0195944 -0.0142278 0.0151014 -0.0778783 -0.0334477 0.0683931 -0.0127925 0.0233385 0.046677 -0.0506708 0.0596568 0.0481747 0.000349064 -0.0175975 -0.0429329 -0.0371919 -0.0723869 0.142777 0.0551638 0.0491731 -0.0280811 -0.0491731 -0.0609048 0.031326 0.00174727 -0.0444306 -0.0626521 0.137785 -0.0304524 -0.0183463 -0.0576599 -0.0783775 0.15975 0.0768798 0.0479251 -0.0873635 -0.000302262 -0.00296412 -0.0496724 -0.00639625 -0.0267083 -0.00695788 -0.0439313 -0.0604056 0.0389391 -0.00137285 0.00942277 -0.0903588 0.0586583 -0.0299532 0.00677067 -0.0758814 0.0024961 0.0164743 -0.0446802 0.0524181 0.040936 0.0237129 0.0288299 -0.0203432 -0.0312012 -0.0798752 -0.024961 -0.00158346 -0.0278315 0.0653978 -0.0224649 0.0162246 -0.0648986 -0.0130421 -0.000596724 -0.105335 0.0928549 0.0758814 -0.0304524 -0.0339469 0.0321997 -0.0331981 -0.0157254 0.0586583 -0.000620125 0.0768798 0.0631513 -0.0663962 0.0743837 -0.0778783 -0.0341966 0.110328 -0.0419345 0.0244618 -0.0229641 0.10883 0.126303
leopard 0.0212626 0.00118859 -0.147914 -0.00204702 0.0417329 -0.0586374 0.0213947 0.0081881 -0.0422612 -0.0221871 0.0250926 -0.0327524 -0.160592 -0.0326203 -0.128897 -0.0227154 -0.0427894 -0.0045893 -0.0787114 -0.0552036 -0.0744853 -0.052034 0.0361861 0.0334127 -0.0472797 0.000350801 -0.109351 0.0150555 0.120444 -0.0855788 -0.00931066 0.0369785 -0.0771266 -0.00690045 -0.0993137 -0.0628635 -0.0270736 0.0802962 0.0771266 0.0692026 -0.00686744 -0.0507134 -0.0131406 0.089805 0.0412046 -0.073957 0.0750135 -0.0797679 0.0491286 0.0546754 0.0125463 0.00282291 0.138405 -0.0530906 0.0501851 -0.00851826 0.0924463 0.0278659 0.119388 0.03196 0.0129425 0.029979 0.0488645 -0.0686744 0.0454307 -0.000668585 0.010037 -0.0149895 0.00723062 0.0552036 0.0422612 0.0729005 -0.0307714 0.0169045 -0.057845 0.0496569 0.109879 -0.0776549 -0.0212626 0.0302431 0.0961441 -0.00264132 -0.0133387 -0.0412046 -0.0417329 -0.017961 -0.00118859 -0.0765983 -0.0303752 0.021923 -3.40483e-05 0.0987855 -0.00865033 0.0221871 -0.0286583 -0.147914 0.100899 -0.0282621 0.0602221 -0.0850506 -0.0273377 -0.0142631 0.0106974 -0.0435818 0.0121501 -0.0808245 0.0224512 -0.0223192 -0.0441101 -0.0618069 -0.143688 -0.0697309 0.0697309 0.0647124 0.0227154 -0.0834658 0.00633917 -0.117275 -0.017961 -0.0464873 -0.0208664 0.00264132 -0.10037 -0.00241021 -0.0507134 0.0972007 0.059958 0.0209985 0.0771266 -0.0610145 -0.0202061 0.039884 -0.0612787 0.0353937 -0.0356578 0.0028064 0.000369372 0.0212626 0.013933 0.156366 0.0155178 -0.109351 -0.0115558 0.0686744 -0.000367309 0.0631276 -0.0229795 0.107766 -0.0628635 -0.0338089 0.06392 -0.017961 -0.0641841 -0.0462231 -0.00937669 0.0213947 -0.0755418 0.0744853 -0.0343372 0.013999 -0.0269415 -0.0356578 0.0367144 -0.0552036 -0.0781831 -0.00726364 0.0575808 -0.0326203 -0.00640521 0.00328514 -0.0382992 0.0501851 -0.0861071 0.0620711 -0.0496569 -0.00231116 0.148971 -0.00653727 -0.00508455 -0.151084 -0.0409405 -0.0286583 -0.0126783 -0.0108955 -0.0293187 0.000813032 -0.0145273 0.0309035 0.0554678 0.0781831 -0.0438459 -0.0496569 -0.045959 0.0924463 0.0414688 0.0702592 0.0282621 0.012018 -0.00353277 0.0797679 0.0346013 -0.0227154 0.0330165 0.0116879 -0.0207344 -0.052034 0.0594297 -0.0108955 0.0254888 -0.0112256 -0.173271 -0.0233757 0.0202061 -0.0961441 -0.0604863 0.0154517 0.0723722 0.0273377 0.00203877 0.0272056 -0.00123812 0.0367144 -0.0433177 0.0478079 0.0144612 0.00159305 0.0390916 0.0127444 0.0404122 0.0866354 0.00295498 -0.0148574 0.00224512 0.073957 0.0449025 0.00815508 0.0294507 0.0396198 0.0620711 0.024036 0.091918 -0.0824093 -0.0202061 -0.0702592 0.0618069 0.0845223 0.023904 -0.0723722 0.0475438 0.0367144 -0.0443742 0.128897 0.00772587 0.0112256 -0.0117539 -0.0367144 -0.0644483 0.0128764 0.0174327 -0.0977289 0.00351626 0.0388274 0.06392 -0.0243002 0.0945593 -0.00027445 -0.121501 0.0501851 -0.024036 -0.0176969 -0.0252246 0.0771266 -0.0729005 0.0866354 0.10037 -0.0126783 0.0607504 0.053883 0.0430536 -0.0277339 0.0116879 0.0472797 -0.0152536 0.00964083 0.0575808 -0.0750135 -0.00977289 -0.0180931 0.0765983 0.00488645 -0.0435818 0.0243002 -0.0522982 -0.0855788 0.0771266 0.0164422 -0.0184893 0.0670896 0.0221871 0.0892767