she 0.0404959 -0.0145427 -0.0561573 -0.0177869 0.0586184 -0.0630931 -0.0288617 -0.0233802 -0.0375874 0.00481029 0.0290855 -0.0680152 0.0181225 -0.046313 -0.0671203 0.0258413 -0.00413908 -0.0234921 0.0302041 -0.0340076 0.0161089 0.0411671 -0.0212548 -0.0391535 -0.0228209 -0.0707 -0.0680152 -0.0326652 0.0577234 -0.0818868 -0.0274075 -0.0145427 -0.0971007 -0.0427333 0.0085019 -0.0894937 0.0720424 -0.0114664 -0.000629253 -0.0191293 0.0657779 -0.0204717 0.11142 -0.0371399 0.00405518 0.0689102 -0.0398247 0.053025 0.0489978 0.113657 0.0971007 -0.0168919 -0.021926 0.00618066 -0.0774121 -0.00900531 -0.042957 -0.0581709 0.0267362 -0.0814393 0.127976 0.0322177 -0.0070756 0.0684627 0.0195768 0.0474317 0.0308753 0.0845716 -0.0209192 0.0357975 0.0653304 0.0503402 0.028638 0.0684627 -0.0186818 0.0205836 0.0930735 0.0264006 0.0809918 0.102918 0.0110189 -0.0971007 0.0881513 -0.0836766 -0.175408 0.0644355 -0.0400484 0.127976 0.0135919 -0.0418383 -0.0809918 -0.0238277 -0.0211429 -0.0398247 -0.0662253 -0.00116761 0.0881513 -0.0130325 0.0253938 -0.00601286 -0.117237 -0.0760697 0.0182343 -0.0371399 -0.0805443 0.0299804 -0.0966532 -0.0854665 0.00620863 -0.0836766 -0.0774121 -0.00945277 0.0666728 0.0163326 -0.0474317 0.00894937 -0.0510114 -0.121711 0.0680152 -0.046313 -0.0787545 -0.00157313 0.0163326 0.03535 -0.0442994 0.0599608 0.0322177 0.0288617 0.0293092 0.0264006 -0.0769646 -0.0250582 -0.103365 -0.0078307 -0.0561573 0.0342313 -0.00674 -0.0225972 -0.00771883 -0.0268481 0.0083341 -0.0787545 0.0106274 -0.0189055 -0.014319 0.102023 -0.107392 0.0407196 -0.11321 -0.0315465 0.10247 0.0389298 -0.0136478 -0.0456418 -0.0278549 -0.00511792 -0.0671203 -0.0548149 0.0278549 0.0903887 -0.00272676 0.0613032 0.063988 0.144085 -0.05392 -0.0264006 -0.00693576 -0.0613032 0.085914 -0.0391535 -0.028638 0.0105714 -0.0630931 -0.0416146 -0.0532488 -0.0398247 0.11142 -0.031994 0.00794257 0.0346788 -0.0742798 0.023604 0.017675 -0.0483266 0.00486622 -0.0326652 -0.078307 0.109182 -0.0521301 -0.0326652 0.00292253 0.0442994 0.0796494 0.125291 0.00738323 0.0581709 -0.0489978 -0.0617507 -0.0230446 -0.0689102 -0.092626 -0.0173394 0.021926 -0.0604083 0.0278549 -0.0975482 -0.110077 0.0742798 0.046313 -0.0742798 0.0131444 -0.0684627 0.0127529 -0.0523538 -0.0778595 0.028638 0.0277431 0.0516826 -0.00254498 0.0148783 0.0233802 0.105155 0.0507877 0.0102918 0.0885988 -0.13961 0.0684627 -0.00274075 0.0375874 0.0198005 0.00861377 0.0113545 -0.0366924 -0.057276 0.110972 -0.000894937 -0.0702526 -0.0460893 0.00922904 0.00676796 0.0644355 -0.0680152 -0.0103477 -0.0220378 0.0427333 0.031994 -0.042957 -0.011802 -0.0261769 0.0167801 0.0512352 0.00125151 0.000353081 -0.0328889 0.0166682 0.00978838 9.74468e-05 0.000541857 -0.0525776 -0.024387 -0.0165563 -0.0357975 -0.13782 0.0122495 0.0742798 0.0248345 0.00111168 0.0671203 0.00727136 -0.00727136 0.053025 0.0921785 0.0422858 0.105155 0.0205836 -0.0729374 0.0552624 -0.0778595 0.0411671 -0.021926 0.0295329 -0.038706 0.042062 0.0599608 -0.0310991 -0.0272956 -0.000702666 -0.0595133 -0.00587303 0.166458 -0.0268481 -0.0389298 -0.0984431 -0.0550386 -0.0818868 0.0331127 0.0975482 0.0107392 0.113657 -0.05392
he 0.109257 0.0726531 -0.0108841 -0.0166381 0.0176087 -0.0479733 -0.0565696 -0.0303646 0.0937281 -0.0191338 -0.00863103 -0.104266 0.0343855 -0.0253731 -0.161944 0.0246799 -0.0176087 0.0410407 0.0596199 -0.0118547 -0.0040902 0.070712 0.00942827 -0.00311965 -0.0366039 -0.0948373 -0.0659979 -0.014905 0.10482 0.021075 0.0135185 0.0926189 -0.00797243 0.0139344 0.0479733 -0.01747 0.0842998 -0.00506076 0.0212136 0.011716 0.160835 -0.0241253 0.171927 0.0062393 0.0273142 0.0720985 -0.0704347 0.0164995 0.0268983 0.0382677 0.0765354 0.0482506 -0.017886 -0.0615611 -0.0253731 -0.0152516 -0.0108148 -0.0360493 -0.0158062 -0.0657206 0.120904 0.120904 -0.00662059 0.0106761 0.0328603 0.0377131 -0.026621 -0.0449229 -0.00703654 0.0715439 0.0374358 -0.000567603 0.0165688 0.0205203 -0.0684936 -0.0632249 0.079863 0.0585107 0.0296713 0.00461015 0.0732077 -0.079863 0.0244026 -0.0657206 -0.0332762 -0.0557377 0.00457548 0.085409 -0.0245412 -0.0482506 -0.050469 0.0765354 -0.0219069 -0.0596199 -0.0673844 -0.0313351 0.0646114 0.0177473 0.00384757 -0.0804176 -0.0998287 -0.0537966 0.0138651 0.0117853 -0.0443683 -0.0106761 -0.0067939 -0.0615611 -0.00244372 -0.0574015 -0.0737623 0.0132412 -0.0177473 -0.0309192 0.0106068 -0.026205 -0.0510236 -0.0601745 0.0898459 -0.0124093 -0.101493 -0.00821507 -0.0291167 0.0399315 -0.138651 -0.100938 0.0421499 -0.0256504 -0.0108148 -0.0388223 -0.0942827 -0.0518555 -0.082636 -0.120349 -0.0585107 -0.0454775 -0.0332762 0.108702 -0.0142117 0.117576 0.0216296 -0.00540739 0.023848 0.0041422 0.00438484 0.0131718 -0.079863 -0.0743169 -0.088182 0.085409 0.0164301 0.0726531 -0.146415 0.0115774 -0.0287008 -0.0038649 -0.0465867 -0.0815268 0.0360493 0.0213523 0.0396542 0.0574015 0.0726531 0.0776446 -0.0496371 -0.00405554 0.0285621 0.00205377 0.120904 -0.0648887 0.00589267 -0.0125479 -0.0965011 -0.0754262 -0.0020711 -0.0177473 0.0300873 -0.085409 0.00346628 -0.0127559 -0.0646114 0.0137265 0.0224615 -0.0192725 -0.00481812 -0.0185792 0.0173314 0.0909551 0.0388223 -0.0443683 0.0257891 0.12645 0.0310578 0.120349 0.0252345 -0.0118547 -0.0909551 -0.00142984 -0.0371585 -0.0904005 -0.0787538 -0.00682856 0.0684936 -0.00786845 0.110366 -0.0654433 -0.0170541 0.0371585 0.0124786 -0.053242 0.0410407 -0.100938 -0.00478346 -0.0726531 -0.129223 0.0191338 0.0239866 0.0213523 -0.0815268 -0.0102602 0.0299486 0.0117853 -0.0185792 -0.0142117 0.191893 -0.056015 0.0726531 0.0521328 0.0518555 -0.00254771 0.00428085 -0.0307805 0.0169847 -0.0646114 0.103156 -0.00235707 -0.114248 -0.0080071 0.0107455 -0.0529647 0.00393422 -0.0237093 -0.0582334 -0.0207977 -0.0173314 -0.0226001 -0.00998287 -0.0124093 0.0612837 0.0120626 0.0673844 0.00221842 -0.0244026 -0.000132693 0.0635022 0.0648887 0.0219069 -0.0219069 -0.0831906 -0.0302259 0.0291167 -0.00327563 -0.105929 0.0585107 0.0781992 0.032167 0.00117853 -0.00779912 0.0152516 -0.0100522 0.108702 0.00235707 0.065166 -0.00603132 -0.0463094 -0.0562923 0.0110228 -0.108702 -0.0214909 -0.0438137 0.0432591 -0.0112307 0.0931735 0.046864 -0.0144197 -0.00551138 0.00167248 -0.0432591 0.017886 0.0709893 -0.0350787 -0.0246799 -0.0646114 -0.00495677 -0.0726531 0.0610064 0.00233974 -0.0981649 0.0698801 -0.0909551
in 0.0529562 0.0654598 0.0661953 0.0470722 0.0522207 -0.0820086 -0.0614145 -0.11621 0.0156294 0.0992929 -0.0856861 -0.028133 0.0522207 0.0588403 -0.0775956 -0.0735503 0.0332815 0.0772278 -0.0457851 -0.0272136 -0.0342009 0.0356719 -0.0908346 -0.0481755 0.00170085 0.0279491 -0.00219502 0.0886281 0.0465206 0.0481755 0.0610468 -0.051853 -0.0160891 0.0415559 -0.0643565 0.051853 -0.0963509 -0.0250071 0.0742858 0.132391 0.0834796 -0.0261104 -0.035488 -0.00638968 0.0270297 0.0775956 0.0203183 -0.0216054 -0.00386139 0.0801698 0.0450496 0.0709761 0.0253749 -0.0204102 -0.0709761 0.000775726 -0.0364074 0.0259265 0.0610468 -0.0853184 -0.0669308 0.0270297 -0.10959 -0.183876 -0.0463367 0.039901 0.0428431 0.135333 0.0459689 0.0654598 0.0934089 -0.0303395 0.0170085 0.133862 -0.0223409 -0.0223409 0.0882604 0.0234442 -0.0724471 0.0500142 0.00353961 -0.0603113 0.04744 -0.0155375 -0.0411882 -0.102235 -0.0478077 0.0628855 -0.0481755 0.0161811 0.0581048 -0.0279491 -0.0253749 -0.138275 -0.054795 0.0119519 0.0702406 -0.0463367 -0.0107108 -0.00259725 0.00836635 -0.119152 -0.0128713 0.00466585 -0.00657356 -0.060679 -0.0114922 -0.0661953 0.00262023 -0.0121358 -0.00928573 0.0735503 -0.105177 -0.0647243 -0.0202263 0.0406366 0.100028 0.0849506 0.0912024 0.0643565 -0.00535538 0.0336493 -0.10959 -0.00241337 -0.0886281 -0.0492787 0.0536917 -0.0709761 -0.0228006 0.0904669 0.0603113 -0.0713438 -0.122094 -0.0584725 0.0159972 -0.0614145 0.002965 -0.118416 -0.0739181 0.0299718 0.029604 -0.00684937 0.0775956 0.0511175 -0.0321783 0.0478077 -0.036959 0.0157214 -0.125771 0.0702406 0.0706083 0.00517151 0.0404527 0.0395333 -0.0183876 -0.0244555 -0.0463367 -0.00418317 0.0724471 0.0285007 0.00919379 -0.0330976 -0.0056312 0.0794343 0.0153536 0.10959 0.0617823 0.00434407 0.00344767 -0.0698728 -0.104441 -0.0432108 -0.0387978 -0.0985574 -0.105177 -0.0154456 -0.0204102 0.0246394 0.0790666 -0.00175831 -0.0170085 0.000379244 -0.0834796 0.0639888 -0.0978219 -0.0131471 -0.000270068 0.0812731 0.0669308 0.0336493 0.0189392 0.0179279 0.0610468 0.017836 -0.0827441 0.00404527 -0.013331 -0.0255587 -0.0248232 -0.123565 0.0720793 -0.0137907 0.0039993 -0.0259265 -0.0332815 -0.0500142 -0.0135149 -0.0223409 -0.00572313 -0.0386139 -0.0408204 0.0672985 -0.0540595 0.0114922 -0.06215 -0.0239039 0.0268459 -0.0159972 -0.0446818 -0.00983736 0.0353042 0.0173763 0.0158133 -0.059208 -0.0060679 0.0147101 -0.00418317 0.0312589 0.0209618 0.0102511 0.0261104 -0.137539 0.0904669 0.0558982 -0.0308911 -0.00749294 0.0323621 -0.00549329 0.0926734 0.0433947 -0.0402688 -0.0242716 -0.00684937 -0.0351203 0.0330976 -0.0382462 0.051853 0.00225248 -0.00314887 -0.0332815 0.0555305 -0.00960751 0.0507497 0.0047348 0.0566337 -0.0285007 0.00367752 0.0336493 -0.0507497 0.00730906 0.00356259 0.0154456 0.0536917 0.128713 0.13092 0.0419237 0.0687696 -0.028133 0.0375107 -0.029604 0.0332815 0.0470722 0.0365913 -0.0400849 0.0367752 -0.0985574 -0.0217893 -0.0272136 -0.0457851 -0.0432108 0.0926734 -0.06215 -0.00896395 0.0941444 0.00102281 0.0481755 -0.0801698 -0.108119 -0.0318105 0.0181118 -0.127242 -0.0669308 -0.060679 0.048911 0.0461528 -0.0356719 -0.0443141 -0.0358558 0.0108946 -0.0470722
for -0.00851202 -0.0342245 0.0322839 0.0458679 -0.0131429 -0.0462207 -0.00094823 -0.0522188 0.0465735 0.0624509 -0.122785 -0.0287556 0.0515131 -0.0187 0.0131429 0.0987923 0.104438 -0.0243453 -0.070566 -0.0867961 -0.0575113 0.0451622 -0.0483377 0.0536301 0.0164066 0.0241688 -0.130547 0.0375764 0.0100115 0.0670377 0.00253596 -0.00657145 -0.0702131 0.0490433 -0.00635094 0.0319311 -0.0966754 -0.0719773 0.0239924 0.0201995 0.1122 -0.0127901 0.0103203 -0.0793867 -0.0617452 -0.0529245 -0.0178179 0.124902 0.044633 0.0645678 -0.0175533 0.102321 -0.023816 0.0198467 -0.1122 0.00568938 -0.0511603 0.0315783 0.00434422 -0.040399 -0.106555 0.0205523 -0.0959697 -0.127724 -0.0659792 -0.0366943 -0.0187882 -0.10726 -0.0582169 0.108672 -0.0314019 0.0571584 0.0239924 0.0652735 0.0164066 -0.0451622 0.118551 0.062098 -0.00895306 0.141838 -0.0449858 0.0162302 -0.0217872 0.0153481 0.00240365 -0.0400462 -0.0529245 0.0215226 0.0359886 0.0126137 0.0755056 0.02805 0.0613924 -0.179238 0.0501018 -0.107966 0.0421632 0.0691546 -0.0241688 0.045515 0.0154363 -0.105143 0.0388113 -0.0656263 -0.0183471 0.0328132 0.00383702 -0.0836207 -0.0141132 0.0875018 0.0232868 0.068449 -0.0465735 0.0164066 0.0871489 0.0435745 0.0871489 0.035283 0.0673905 0.0483377 0.0211698 -0.0246981 -0.0804452 0.0386349 -0.0185236 0.0128783 0.0449858 -0.0187 0.105143 0.0451622 0.0779754 -0.117845 -0.070566 -0.0765641 -0.0617452 -0.064215 0.0730358 -0.0575113 0.00608631 0.0173769 0.0945584 0.0370471 0.0589226 0.0677433 -0.0423396 -0.0698603 -0.0204641 -0.105143 -0.106555 0.105143 -0.0127019 0.023816 -0.0617452 -0.00793867 -0.0268151 -0.00987923 0.025933 -0.005954 0.0363415 -0.068449 0.0345773 0.0149953 0.0221401 0.0938527 0.0381056 0.0135839 -0.0127019 0.0252273 0.0132311 -0.0071448 -0.13337 -0.0649207 -0.0209934 -0.0439273 -0.0370471 -0.00170902 0.0479848 -0.0596282 -0.028932 0.0695075 -0.111494 -0.110789 0.0204641 0.0094823 0.0216108 -0.00877664 -0.0698603 0.0179061 0.139721 0.00939409 0.0174651 -0.025933 0.0712716 -0.0698603 -0.14466 -0.00996744 0.062098 -0.0578641 -0.127724 -0.126313 0.00370471 -0.0252273 -0.0395169 0.0677433 -0.0673905 -0.00864433 -0.000407959 0.070566 0.0179061 -0.0287556 0.0070566 0.0853848 0.0186118 0.0889131 0.0465735 0.0511603 0.0211698 -0.0358122 -0.0564528 0.0209052 0.0329896 -0.031049 0.0187 -0.0374 0.101615 0.00308726 -0.0273443 0.0198467 0.0433981 0.0204641 0.0202877 -0.0264622 0.0945584 -6.99457e-05 -0.0501018 -0.0159655 0.0490433 -0.0168476 -0.01107 -0.0421632 0.0441037 0.000465846 0.00288879 -0.0515131 0.066332 0.0189646 0.014466 0.0255802 -0.0418103 -0.0214344 0.0197585 0.0181707 0.0435745 0.095264 -0.00315342 0.00197364 0.0432216 0.0712716 -0.066332 -0.033166 -0.0126137 0.0276971 -0.0138486 0.0335188 0.0345773 0.0709188 -0.0291085 0.0680961 -0.0250509 -0.0305198 0.0508075 -0.00987923 0.0769169 0.011908 0.095264 -0.00122388 -0.00613042 -0.103026 -0.0336952 -0.0793867 0.0592754 -0.0296377 -0.0136722 0.0635094 -0.00202877 0.172181 -0.0340481 -0.016583 0.0294613 0.0211698 -0.0163184 0.00269033 -0.0596282 0.0589226 0.00573348 0.00034456 0.0133193 0.0515131 -0.0252273 0.0174651
that -0.0123606 -0.0222299 0.0655398 0.0394772 -0.0866199 0.0249128 -0.0111628 -0.0705224 0.092369 0.0927522 -0.0563412 -0.0605572 -0.0540416 0.0605572 -0.10885 0.00510233 0.00862366 -0.0118815 -0.00075457 -0.023763 -0.000124265 0.030087 -0.0189721 -0.0360277 0.0743551 -0.0433099 -0.0509754 0.00479092 0.000670729 0.0486758 -0.042735 0.011067 0.017439 -0.0352612 0.0873864 -0.0302786 0.0402437 0.0197386 0.0133188 0.0494423 0.108083 0.10655 0.0513587 -0.0505921 -0.0188762 -0.0104921 -0.0291288 0.0033776 -0.0123606 0.0149477 0.0850868 0.0350695 -0.0352612 -0.0747384 0.0682227 0.06439 0.00536583 -0.103484 0.00214394 -0.0594074 0.0176306 0.134912 -0.0381357 0.030087 -0.0693725 -0.0135104 0.0171515 0.105017 0.00838411 0.0390939 0.0298954 -0.00412019 0.0481009 -0.0392856 -0.0831704 0.0436932 0.121114 0.134146 0.0377525 0.0996512 0.0640067 -0.0797209 0.0344946 -0.0106358 -0.105017 -0.123414 0.0190679 0.164041 -0.0801042 -0.0735886 0.0381357 0.0590242 0.00276676 -0.0969683 -0.0189721 -0.00103604 0.030087 0.0059647 0.0138937 0.034303 -0.077038 -0.0456096 0.011067 0.032195 -0.0277873 -0.0180139 -0.102717 -0.113449 0.022709 -0.0962017 -0.055958 -0.00560538 -0.0758882 0.0459928 0.0816373 0.0206968 0.00594074 0.0283623 0.0316201 0.0413936 -0.160208 -0.0262542 -0.0228048 0.0249128 -0.0969683 -0.0528918 0.0124564 -0.0678395 0.00982139 -0.0494423 -0.0946686 0.0183971 -0.103484 -0.0927522 -0.00953393 -0.0862366 0.0747384 -0.0329615 0.0143728 0.040627 0.0117378 -0.124947 -0.0170557 -0.00402437 0.0281706 -0.00238348 -0.0613238 -0.0402437 -0.00582097 0.068606 -0.0187804 0.0346863 -0.0893028 0.016864 -0.0030063 -0.0341114 -0.0816373 -0.145644 -0.0352612 0.0352612 -0.0348779 0.0149477 -0.0164808 0.0105879 0.0119773 -0.0238588 0.0366026 0.0804875 -0.0108754 0.00646774 -0.0413936 0.0154268 -0.0597907 -0.0705224 0.0344946 0.0062282 0.00991721 -0.0850868 -0.0145644 -0.0820206 -0.119581 -0.0620903 -0.0226132 -0.0146602 0.0762715 -0.00656356 -0.0277873 0.00591679 0.0456096 0.06439 0.0226132 0.0400521 0.00249128 -0.0145644 0.0117378 -0.0571078 -0.0268292 0.0344946 -0.0383274 -0.12648 0.0201219 0.0287455 -0.000120522 -0.000988128 -0.0312368 -0.0252961 -0.0123606 0.0477176 0.0762715 -0.0117857 -0.0264459 -0.0120252 0.00366506 0.025871 -0.06439 0.0835537 0.121114 0.00689893 -0.0942853 0.0481009 0.0459928 0.0304703 -0.0125522 -0.0344946 0.0942853 -0.0590242 0.0981181 0.0275957 0.0571078 0.068606 0.0165766 -0.0578743 0.0270208 -0.0739718 0.00910275 -0.044843 -0.0617071 0.0125522 0.0594074 0.0239546 0.00361715 -0.114216 -0.0194511 -0.0847035 0.0540416 0.0456096 0.0981181 -0.0513587 0.00414415 0.00929439 0.0548081 0.0996512 0.0513587 -0.0136062 0.0935188 -0.0254877 0.113449 0.060174 -0.0252961 -0.051742 0.0494423 -0.049059 -0.0755049 0.0835537 -0.0312368 0.0912191 -0.00761757 -0.0277873 -0.0513587 0.0461845 0.127247 0.0402437 0.124947 0.0747384 0.0597907 -0.0720555 0.0197386 -0.0617071 0.0701391 -0.0459928 -0.0314284 0.0360277 0.0243379 0.0306619 0.027979 -0.0831704 -0.0291288 -0.12648 0.0167682 0.000958184 -0.00886321 -0.0122648 -0.0262542 -0.0161933 -0.0152351 0.0502089 0.01581 0.00538979 0.0479092 -0.116515
is 0.00374603 -0.0389198 0.0913317 0.0120003 -0.0705745 0.105343 0.0599364 -0.0573418 0.0381414 0.0110921 -0.0653852 -0.0313953 0.0537093 0.00570823 0.0762828 0.138035 -0.0193302 0.0985968 -0.0417739 -0.0120651 -0.0640879 0.0944453 0.0263357 0.00914615 0.0422928 -0.02426 -0.100154 0.100672 -0.0123246 0.033471 0.051893 -0.0101191 -0.0420334 0.0809531 0.0923696 0.0539687 -0.0866614 0.0609743 0.0534498 -0.0492984 0.0581202 0.0312655 -0.0114813 0.0337305 0.022314 -0.00470281 0.0171247 0.0565634 0.0342494 -0.06305 0.0162166 0.0355467 0.0648663 -0.0441091 0.0913317 0.0417739 0.0505957 -0.00413523 0.0123246 0.0124543 -0.00895155 0.0825099 -0.0583797 -0.0939264 -0.0617527 0.0124543 -0.00564337 0.0280222 -0.0710934 0.0422928 0.0391792 0.0233519 0.0612338 -0.0109624 0.0396982 -0.00612986 0.0428117 0.0221843 0.0425523 0.186815 0.0513741 -0.113127 0.0876992 -0.0415144 0.0371035 -0.000741908 -0.04852 0.0690177 0.133884 -0.00856235 0.0495578 -0.0778395 -0.00080272 -0.0804342 -0.0142706 -0.0835478 0.0140111 0.0456659 0.0381414 0.0409955 -0.0207572 0.0289304 -0.0679799 0.04852 -0.0980778 -0.0199788 -0.0148544 -0.0477416 -0.0620122 -0.052412 0.0255573 -0.0861424 -0.0578607 0.0451469 -0.02426 0.0840667 -0.0202383 -0.0435901 0.107937 0.0459253 0.036844 0.0171247 -0.0851046 0.0503362 -0.013103 0.0288006 0.0148544 0.0238708 0.0902939 0.0386603 -0.0193302 -0.00544877 -0.00908128 -0.0570823 -0.000372981 -0.0391792 0.134922 0.030098 0.0186815 -0.00457307 0.0985968 0.0114165 0.140111 -0.0126489 -0.0526714 -0.0219248 -0.036844 -0.0604554 0.0265952 -0.0312655 0.0245195 0.0464443 0.0560445 0.0565634 0.0148544 0.0503362 0.0617527 -0.0918507 -0.0185518 -0.110532 0.0316547 0.0552661 -0.000952724 0.0311358 -0.0158274 -0.0199788 0.0258168 -0.0339899 0.0422928 0.036844 -0.055785 -0.0768017 0.0230924 -0.0365846 -0.018941 -0.00622716 0.00726502 -0.0350278 0.0633095 0.0166058 -0.0246492 -0.00104597 0.00390819 -0.030098 0.0147895 0.0438496 -0.00716772 0.0381414 0.0768017 0.0679799 0.0224437 0.0752449 -0.00960021 0.0114813 -0.0487794 0.0710934 -0.103786 -0.0267249 -0.0201085 -0.0511146 0.0547471 -0.0568229 -0.0783585 0.0529309 -0.122468 0.120911 -0.0399576 0.0345089 0.0487794 0.0249087 0.033471 0.0371035 0.0245195 0.0516336 -0.107419 0.105862 0.0991157 -0.063569 -0.0757638 0.0799153 -0.0179031 -0.0773206 -0.0003669 -0.0389198 0.0710934 0.018941 -0.0121949 0.0147246 -0.0420334 0.110013 -0.0443685 -0.0263357 0.0167355 0.0788774 0.029579 -0.0238708 -0.0422928 0.00252979 -0.0110273 0.0319142 0.00252979 0.00593527 0.0918507 -0.0716124 0.0163463 -0.0422928 0.0480011 0.0324331 0.0409955 -0.0267249 -0.0490389 -0.142187 0.0573418 0.0456659 0.033471 0.0573418 -0.0142057 0.0542282 -0.0640879 0.028152 0.0503362 -0.0876992 0.0234816 0.0384008 0.0219248 0.226254 -0.0547471 -0.0851046 -0.0480011 -0.0339899 -0.0255573 0.0768017 0.0347683 0.026206 0.0288006 0.0721313 -0.0102489 -0.114684 -0.0394387 -0.0778395 0.00609743 -0.0876992 -0.055785 0.00170274 0.0716124 -0.00210815 -0.0550066 -0.074207 0.0555255 -0.00668123 -0.124024 -0.0193302 -0.0498173 0.09704 0.0144003 0.0679799 -0.0131679 0.0059677 0.0871803 0.0568229
on 0.0166812 -0.0566705 0.0173668 0.127356 0.00388467 -0.0563658 0.0140915 -0.100544 0.082873 0.038085 -0.00982593 0.0551471 0.00860721 0.0289446 -0.0348859 -0.0417412 0.00765509 0.0853104 0.0962789 -0.0287923 -0.0245267 -0.0962789 -0.102982 0.0673343 0.0207182 -0.0318391 0.0231557 0.0633735 0.0688577 0.0127966 0.00422744 0.000737897 -0.00780743 -0.0779981 0.00925466 -0.0167574 -0.0134059 0.009407 0.0865291 0.0303157 -0.0478348 -0.0728185 0.0667249 0.0260501 0.00799785 -0.00590318 -0.0180523 -0.0240697 0.151731 0.00594126 0.0137868 0.138934 0.00571275 -0.0283352 -0.0220893 0.0877479 -0.115169 0.0484441 0.0258978 -0.0530143 -0.0618501 0.0364093 -0.0603267 -0.126138 -0.00875955 -0.00147579 0.0920134 0.124919 0.037171 0.0962789 0.0840917 0.00329435 0.0779981 0.053319 -0.0172906 -0.0362569 0.11456 0.00491297 -0.0956695 0.0773887 -0.0499675 -0.0895759 0.0932321 0.00910232 0.0673343 -0.125528 -0.0938415 0.0327531 0.0481395 0.0572799 -0.023765 0.0926227 0.0341242 -0.0944508 0.00891189 -0.0655062 0.0118825 -0.0396084 0.0333625 0.0217846 0.0871385 -0.0834823 0.135278 -0.121263 -0.0364093 -0.0840917 -0.165746 -0.0648969 0.0220893 -0.134669 0.0514909 0.0281829 -0.0435693 -0.0269642 0.0168336 -0.0563658 0.00342765 0.0310774 -0.0222416 0.0373233 -0.0932321 -0.0137868 -0.0207182 0.109685 -0.0414365 -0.0114255 0.00704573 -0.0263548 -0.0481395 0.0108923 -0.0655062 -0.0652015 -0.029554 -0.0184331 -0.0383897 -0.0316867 -0.0159957 -0.0594126 -0.0505769 -0.0633735 0.126138 0.0740373 -0.00176143 -0.037628 0.0140153 0.0816543 0.0502722 -0.0962789 -0.0514909 0.0999351 0.0361046 0.060936 -0.0131012 -0.0281829 -0.045702 0.00272308 -0.0566705 0.0119587 -0.0103591 -0.0313821 0.00917849 -0.00258978 0.0216323 0.0357999 0.0499675 0.00388467 0.0399131 0.0153102 0.0198042 -0.0779981 -0.0487488 -0.0153102 -0.0450927 -0.0539284 -0.0481395 0.0271165 -0.00011723 -0.0071219 -0.0618501 0.0163766 0.0333625 0.0283352 -0.0444833 0.0865291 0.0255931 0.00696956 -0.00955934 0.0205659 0.11395 0.0108923 -0.0199565 0.0673343 0.0205659 -0.021937 -0.135887 0.0636781 -0.0182808 -0.000590318 -0.00445595 -0.0164527 0.038542 -0.0105876 -0.0135583 -0.0743419 0.00567467 0.0642875 -0.00187569 0.0932321 0.0661156 -0.0251361 -0.0115017 0.022394 -0.023765 0.0354952 0.00955934 0.0123395 0.112732 0.00510339 -0.0944508 0.0201089 0.098107 0.0316867 -0.0180523 0.0274212 -0.0365616 0.00193281 -0.0078836 0.100544 0.0661156 -0.0211753 0.113341 -0.0278782 0.0213276 -0.0236127 -0.00552233 -0.0230033 0.0490535 0.0169097 0.0287923 0.0429599 0.0315344 -0.00109018 -0.0853104 -0.0956695 0.0615454 -0.100544 0.00413222 -0.0536237 -0.0109685 0.0254408 0.0186617 0.0071219 -0.0126442 -0.0402178 0.0108923 -0.0804355 -0.000216609 0.0263548 0.00205659 0.0764747 -0.0597173 0.0575845 0.0655062 -0.0776934 0.022394 0.0907947 -0.0658109 0.01432 -0.00521765 0.00289446 0.137106 -0.030925 0.148684 -0.0364093 0.0301633 0.0377803 -0.023308 -0.110904 0.0280306 -0.0263548 0.0514909 0.0688577 -0.0682483 0.0588033 -0.0450927 0.0306203 -0.0987163 0.0487488 0.0184331 -0.0755607 0.0167574 -0.0174429 0.019271 0.0252884 -0.0816543 0.0517956 0.00982593 -0.0728185 -0.018357 -0.0441786
with -0.0159699 0.0140911 -0.0227023 0.0876778 0.01049 -0.017927 -0.0155785 -0.0895566 0.0367934 0.0399247 -0.0754656 -0.0623139 -0.112102 -0.01323 -0.076405 0.0635664 0.0386722 0.0901829 -0.0403944 -0.0313135 -0.0291216 0.0219195 0.00724125 -0.028965 0.125254 -0.0245811 -0.0845465 0.0407076 -0.0120557 0.0851728 0.0366368 0.0142476 -0.030061 0.0582431 -0.112729 0.0158133 -0.0311569 0.00354234 0.0352277 0.00771095 0.0773444 0.0191012 -0.102082 0.0607482 -0.0349146 0.00684983 0.0726473 -0.0259902 0.154689 0.0820414 -0.0096289 0.0288084 -0.0820414 -0.0585563 0.0895566 0.0989507 -0.0522936 0.0105683 0.0244245 -0.0908092 0.00371848 0.0438389 -0.108971 -0.0666978 -0.0620008 0.0679503 -0.0163613 0.0389853 -0.0908092 0.114607 0.0601219 0.0870516 -0.0147173 0.0378893 0.0327226 -0.100203 0.0901829 0.156568 0.0342883 0.124628 0.0270862 -0.0798495 -0.00495145 -0.0247377 0.0782838 -0.115234 -0.164083 -0.012682 -0.0472834 0.0964456 -0.00806323 0.0444652 -0.00908092 -0.0291216 -0.0513542 -0.062627 0.035854 0.0117426 -0.0601219 0.10584 0.041647 -0.133396 -0.0901829 0.0151871 0.0129951 0.0385156 0.0479097 -0.0236417 0.0169876 -0.00159503 0.00238766 0.0491622 -0.0299044 -0.0519804 -0.0228589 0.127759 0.0983244 0.0475965 0.0255205 0.0407076 -0.0682634 -0.0250508 -0.0713948 -0.0138562 -0.0355408 -0.05793 -0.00252465 -0.0729605 0.0795363 0.0785969 0.0350711 -0.0466571 -0.114607 0.0457177 -0.0428995 0.0196492 -0.00497102 0.0250508 0.0277125 -0.0333489 -0.0158916 0.13089 -0.0435258 0.0233286 0.0422732 0.0198841 0.00544072 -0.125254 -0.0016146 0.118365 0.0920617 0.0516673 -0.00786752 0.0454046 -0.0199624 -0.0136214 -0.0814151 -0.118365 0.0158133 0.055738 -0.00309221 0.0701423 -0.035854 0.12588 0.0366368 0.0679503 0.0504148 -0.0604351 -0.0569906 -0.0501016 -0.121496 0.00403161 0.00743696 -0.0374196 -0.0767181 -0.0620008 -0.00405119 0.0479097 -0.0507279 0.0676372 0.0199624 -0.00951148 0.044152 0.0211366 -0.07891 -0.0344449 -0.00587128 -0.0366368 0.0447783 -0.0413338 -0.000777945 -0.0320963 -0.039455 -0.0391419 -0.00391419 -0.0082198 -0.085799 0.00495145 -0.0914354 -0.116486 0.0223892 0.0407076 -0.0205103 -0.0601219 0.0198058 -0.0432126 -0.0302175 -0.0310004 0.0748393 0.00872864 -0.0186315 -0.0767181 0.0244245 0.0598088 -0.00344449 0.00165374 0.0281822 0.127759 -0.092688 0.00735867 0.0015461 0.064819 0.0541724 0.00610613 -0.0342883 -0.0125254 -0.0252074 -0.0356974 0.118991 0.0108814 0.0598088 -0.0310004 0.016283 0.0150305 -0.0191795 -0.0259902 0.00567557 0.0591825 0.0155785 0.0155002 -0.103335 0.101456 0.0211366 -0.0396116 0.0488491 0.0569906 0.129012 0.0454046 -0.0507279 0.035854 0.00279865 0.00955062 0.113355 -0.00491231 -0.018475 -0.0428995 0.0522936 -0.00688897 -0.0535461 0.0679503 0.0248942 0.0245811 -0.0201972 0.0316266 0.0152653 0.0501016 0.0079458 -0.0206669 0.0419601 0.0374196 0.0883041 -0.0205103 -0.0361671 -0.0460309 0.0547986 0.0180836 0.00129168 -0.0454046 0.0222326 -0.0256771 -0.0200406 0.0573037 -0.0258336 0.0294347 0.0704554 0.0516673 -0.0563643 -0.0212932 0.0314701 0.00896349 -0.0133082 0.00197667 -0.0889304 -0.0156568 -0.0598088 -0.0305307 -0.0485359 0.00692811 -0.0120557 -0.044152
said -0.00453209 -0.0220217 0.0496401 -0.0379601 -0.0282267 0.03066 0.127507 -0.0788401 0.00827335 -0.0481801 -0.0316334 -0.0754335 0.0372301 0.0691068 -0.114854 0.031025 0.0880868 0.10804 -0.124587 -0.0209267 -0.100253 0.02409 0.0596168 0.01387 0.0559668 -0.0671601 -0.0545068 -0.0294434 -0.103173 0.0411234 -0.0613201 0.0231167 0.028105 0.016425 0.0369867 -0.0158167 0.0214134 0.0256717 -0.0773801 -0.000806043 -0.0142959 -0.0469634 0.0396634 -0.0987935 -0.103173 -0.0386901 -0.0576701 -0.0474501 -0.00705668 0.0754335 0.0866268 -0.0115584 0.0759201 -0.0530468 0.027375 0.0715401 -0.0545068 0.00693501 0.0549934 -0.0493967 -0.0919801 0.0225084 -0.0472067 0.00775626 -0.014235 0.0666734 0.0210484 0.000121192 -0.0671601 0.0900335 -0.0428267 -0.02993 0.0652134 0.0552368 -0.0793268 0.0192234 0.0279834 0.139187 0.0710534 0.0236034 0.0837068 0.0411234 0.0695934 0.0652134 -0.02774 -0.0730001 -0.0793268 0.15476 -0.0114367 -0.022265 0.167414 -0.0141134 0.0462334 0.00979418 -0.0276184 -0.0730001 0.00851668 0.10366 -0.0321201 -0.0734868 -0.0564534 -0.0372301 -0.010585 0.0610768 0.0720268 0.0345534 -0.0238467 -0.0890601 -0.0730001 0.0245767 0.0177634 -0.0596168 0.00158927 0.01022 -0.0681334 -0.120207 -0.00477542 0.0158167 0.0292 0.0423401 -0.107067 0.115827 -0.029565 0.0637534 -0.0574268 -0.100253 0.0438001 -0.0274967 0.0150259 0.0132009 0.00672209 -0.0661868 -0.01606 -0.0399067 -0.00736084 -0.0610768 0.0268884 0.0754335 0.0450167 0.0335801 -0.0172767 -0.0144784 0.00266146 -0.0360134 0.00438001 0.0637534 -0.0114367 -0.11972 0.0145392 0.02628 0.0335801 0.133347 -0.0596168 0.114854 0.0323634 0.0118017 -0.0205617 0.000631147 -0.01679 0.0217784 0.0206834 0.0411234 0.0367434 0.02336 0.0290784 -0.00501876 0.0014524 -0.025185 0.14892 -0.028105 0.0165467 0.0472067 0.0416101 -0.0588868 -0.0116192 -0.0108284 0.106094 0.0399067 -0.02482 0.0992802 0.02774 -0.0260367 0.01971 0.0301734 0.0622934 0.00675251 -0.0345534 0.0734868 0.0187367 0.0744601 -0.0335801 -0.0783535 -0.0929535 0.0608334 -0.0528034 -0.00328501 0.0900335 0.0552368 -0.0856535 -0.00501876 0.0442867 -0.0856535 0.0321201 -0.0256717 -0.0330934 0.0416101 0.02993 0.0199534 -0.0243334 0.00179459 -0.01314 -0.00918585 0.00705668 0.00574876 0.02263 -0.03139 0.0501267 0.0372301 -0.00617459 0.0146 0.101713 -0.0618068 -0.0642401 -0.030295 0.0949002 -0.0778668 -0.00240292 0.11534 0.00924668 0.0333367 0.00138396 0.0236034 -0.0540201 -0.0739734 0.028105 -0.0350401 0.00930751 -0.0472067 0.0203184 -0.02117 0.0298084 0.01898 -0.0686201 0.0169117 0.0798135 0.0491534 -0.01971 -0.0642401 0.0949002 -0.0139917 -0.0525601 0.00523167 0.0413667 -0.0158167 0.0900335 -0.0571834 0.0307817 0.00107979 -0.0176417 -0.0997668 -0.0396634 -0.0493967 0.0147825 0.021535 0.0501267 0.15184 0.13432 -0.0452601 -0.0442867 0.0968468 0.117287 -0.10366 0.01606 0.00936835 -0.0691068 -0.0129575 0.00784751 -0.0142959 0.0391767 -0.0574268 -0.0905201 0.0822468 -0.0576701 -0.0584001 0.0851668 0.0627801 -0.00623543 -0.016425 0.0260367 0.0135659 -0.0963602 0.0149042 -0.0464767 0.0267667 -0.0586434 0.0347967 0.0528034 0.0720268 0.0900335 -0.0433134
doctor -0.0317811 0.00931802 0.0271221 -0.00438862 -0.0381041 0.114479 -0.0472557 -0.0409328 0.00915163 -0.0695524 0.0404336 -0.0871901 0.0212983 0.0266229 -0.000512179 0.171718 0.00802848 0.035941 0.0163065 0.0168057 0.0512491 0.0151418 0.0179705 0.0272885 -0.0149754 -0.0565737 -0.0145594 -0.0189688 0.00894364 -0.0582377 -0.00757089 0.0191352 -0.0755426 -0.0196344 -0.0815327 -7.4747e-05 0.139105 0.0455918 -0.00268309 -0.019884 -0.00707171 -0.113813 0.0354418 0.00451342 0.0945114 -0.00915163 -0.0271221 0.0237942 0.0099004 -0.0399344 -0.0622311 0.0407664 -0.0792032 -0.00948442 0.0224631 -0.0898524 -0.0173881 0.104495 -0.0658918 -0.0356082 -0.0364401 -0.00773729 0.0738786 0.0762081 0.0788704 0.152416 -0.019884 0.123131 0.0195512 -0.0635622 -0.0142266 0.0379377 -0.00678053 -0.0189688 -0.127124 0.0608999 -0.00530379 -0.0226295 0.0130619 0.0885212 0.0479213 0.0522475 -0.0327795 -0.00370225 -0.0158906 -0.0728803 -0.0495852 0.0282869 0.016057 0.0262901 -0.00923483 0.0173881 -0.0485868 -0.0479213 0.0439278 0.0482541 0.0925147 0.0612327 -0.029618 -0.0391024 -0.00274549 -0.17438 0.0347762 -0.0589032 0.0374385 -0.0229623 -0.0267893 -0.0281205 0.0369393 -0.0745442 0.0692196 -0.0269557 -0.0331123 -0.045259 -0.0264565 -0.0469229 -0.0665573 -0.0775393 0.0485868 0.0712163 -0.0384369 -0.0535786 -0.0367729 0.0099836 -0.0023711 -0.0289524 -0.0495852 -0.0938458 0.0722147 0.0622311 -0.0985048 -0.116475 -0.0386032 -0.00159114 -0.00139354 0.0023711 -0.00403504 0.0469229 -0.0163897 0.104495 0.0672229 -0.0811999 -0.0128955 0.0851934 -0.0198008 -0.0106076 0.019884 0.0226295 -0.142433 -0.0115643 0.15641 0.00927643 -0.100502 -0.0472557 0.0542442 0.0179705 0.049918 -0.0311155 0.0169721 0.00204872 0.00873565 0.0475885 0.15042 -0.00461741 -0.010982 -0.0865245 -0.0100668 -0.0945114 0.0334451 -0.0678885 0.00409744 0.0509163 0.00123755 -0.0678885 -0.0148922 -0.0372721 0.0341106 0.0572393 -0.00409744 -0.045259 -0.0286196 -0.0618983 -0.0555754 -0.0589032 0.0216311 0.0103164 0.0442606 0.0176377 -0.0492524 -0.00528299 -0.0425967 0.0938458 -0.00540778 0.111151 0.109154 -0.035109 -0.059236 -0.0412655 -0.0246262 -0.0111484 -0.110485 0.107823 0.0176377 -0.0256246 0.0505836 -0.0565737 -0.00073317 -0.054577 0.107823 -0.114479 -0.0326131 -0.0226295 -0.0645606 0.0307828 -0.0462573 0.00536618 -0.0492524 -0.00848606 -0.0406 -0.0366065 0.0595688 -0.015225 0.0991704 0.0354418 0.0188856 -0.0575721 -0.0222967 -0.0191352 -0.099836 0.0522475 0.0678885 -0.024127 -0.0439278 -0.0991704 -0.0502508 -0.00977561 0.0718819 0.107157 -0.0469229 -0.0652262 0.0978393 -0.104495 0.0361073 -0.0752098 0.0575721 0.035941 -0.0635622 0.000369185 0.0327795 0.0361073 0.00343186 -0.0652262 0.161734 0.00815327 0.063895 0.134446 -0.0991704 -0.00553258 0.0117307 0.0410991 -0.0354418 0.00536618 -0.0119803 -0.0738786 0.0254582 0.00578217 0.03045 -0.0332787 0.019052 -0.0121467 0.0465901 0.0208824 0.0549098 0.0252918 0.0352754 -0.0648934 -0.0362737 -0.00786208 0.0337778 0.0100252 0.121134 -0.103164 0.0415983 0.0502508 -0.0155578 0.0200504 -2.74614e-05 0.0138106 0.0509163 0.0384369 0.0615655 0.0372721 -0.0762081 -0.00877725 0.0459246 0.114479 -0.0758753 -0.00906844 0.0525803 -0.029618
nurse -0.0290798 -0.0607445 -0.00771423 0.00706801 -0.00407925 0.0352189 -0.0234254 -0.0617138 0.00107535 -0.0571903 0.0123589 -0.0752844 0.0167209 0.0258487 0.017044 0.0817466 -0.014863 0.00466489 0.0352189 -0.0633294 0.0253641 -0.00448314 0.0846545 0.0060179 0.0316647 -0.00718917 -0.0823928 0.001247 0.00343303 -0.0294029 0.00325128 -0.0100568 -0.0578365 -0.0552516 -0.085947 -0.0478201 0.126659 0.126012 -0.0575134 -0.0114704 -0.0600983 -0.0646218 -0.0374806 -0.0400655 0.035542 -0.023587 -0.0292414 0.0717302 0.0898243 0.0536361 -0.0943478 -0.0823928 -0.0279489 0.0584827 -0.00136312 -0.0988713 -0.0381269 0.0688222 -0.0109857 0.00240312 -0.0271412 0.00357439 0.0344111 0.0269796 0.0878856 0.0775461 0.000547771 0.0655911 -0.0012268 -0.00375614 0.0332802 0.0962865 -0.044589 0.0149438 -0.0723764 0.137644 0.0248794 -0.0630062 0.0536361 0.103395 0.0781924 0.0520205 -0.017771 0.007795 0.0403886 0.0853008 -0.0733457 0.0513743 0.0633294 0.0180941 0.0962865 -0.00525052 -0.0762537 0.0205982 0.0885319 0.0975789 0.175771 0.047497 0.0179325 -0.00118137 -0.034088 -0.163493 0.0222945 -0.0768999 0.0153477 -0.0465277 0.0458815 0.000598256 0.0701146 -0.0478201 0.0371575 -0.00361478 -0.0306954 -0.0183364 -0.065268 0.00981443 -0.105334 -0.0911167 0.0781924 0.0452353 -0.0167209 -0.0327956 -0.0481432 -0.034088 0.00912783 0.0701146 -0.0481432 -0.113088 0.116965 0.120843 -0.0332802 -0.102102 -0.0536361 -0.0324725 -0.00525052 0.00169632 -0.0520205 -0.017771 -0.0337649 0.065268 0.0581596 -0.053313 0.0937016 -0.00331187 -0.068176 0.0969327 -0.0539592 0.0917629 -0.120197 -0.0736688 0.132475 0.0160747 0.00325128 0.0382884 0.0442659 0.00896627 0.0247178 -0.00844122 -0.0392577 -0.0046245 0.0649449 0.00900666 0.0655911 0.016317 -0.0210021 0.00969327 -0.0549285 -0.0878856 0.0840083 -0.0665604 -0.00553324 0.0258487 -0.00494761 -0.0707609 -0.0144591 -0.0125205 0.0260103 0.0321493 0.000918841 -0.0516974 -0.019225 -0.0516974 0.0176094 -0.0252025 -0.0101375 0.044589 0.0116319 0.0542823 -0.0610676 -0.0432966 -0.118904 -0.0319878 0.128597 0.118904 0.0513743 0.0432966 -0.0339264 -0.0224561 -0.0160747 0.0536361 -0.071084 0.050405 0.102749 -0.0266565 -0.0752844 -0.0865932 -0.0189827 -0.0423273 0.0465277 -0.169309 -0.0439428 -0.059452 -0.0659142 -0.0208405 0.0678529 -0.0234254 0.000411459 -0.0442659 -0.00751228 0.0426504 0.0746382 0.056221 0.109211 -0.0128436 0.0111473 -0.0439428 -0.0231023 -0.0555747 0.0167209 -0.0930554 0.0285951 -0.0655911 -0.0675298 -0.118258 -0.0420042 -0.0487894 0.0516974 0.0180941 -0.0145399 -0.00308973 0.0814235 -0.0752844 0.023587 -0.0791617 -0.0468508 0.044589 -0.0791617 -0.0546054 -0.0558978 -0.0137321 -0.0465277 -0.0197904 0.044589 0.00418022 -0.0363498 0.0287567 -0.0386115 -0.00670451 0.0149438 0.0969327 -0.0930554 -0.0416811 -0.0193058 -0.0513743 0.0172863 -0.050405 0.0403886 -0.0290798 -0.0604214 0.0308569 0.0227792 0.00593713 0.032634 0.0904705 0.0407117 -0.0468508 0.0264949 -0.0105818 0.0290798 -0.0234254 0.050405 -0.0339264 0.0969327 0.0368344 0.0131667 -0.0159939 -0.00206992 -0.0353804 0.0891781 0.122781 0.00472547 -0.0153477 -0.0872394 -0.0140552 -0.0465277 0.0759306 -0.00317051 0.0124397 0.0817466 0.0429735
as -0.0207871 0.042541 -0.0399627 0.00850014 -0.0634892 0.0480197 0.0362565 0.00443135 0.0754135 0.0386736 0.101196 -0.0441524 0.042541 0.0538208 -0.0502757 -0.0211093 0.0876602 0.0244933 0.0441524 -0.0705793 -9.31591e-05 0.00539819 0.0116021 -0.0148249 0.0257824 -0.0528539 -0.0718684 0.0799254 0.0457638 0.0699348 0.0638115 0.038029 -0.00555933 -0.0580104 -0.00664703 0.050598 0.00717073 0.00906413 0.0538208 -0.00866128 0.125045 0.0188534 0.0464083 -0.0120049 -0.0560767 -0.0283606 -0.0301332 0.0418964 0.0960395 0.0319057 0.0609109 0.0307777 -0.066712 0.0444746 0.00612332 0.0235264 -0.0754135 0.050598 0.10184 0.0973286 -0.114087 0.105063 -0.106352 -0.106997 -0.0367399 0.0696125 -0.039157 0.0273938 -0.0499534 0.01555 0.0592995 0.0431855 0.100551 0.0116021 0.010877 -0.090883 0.0197397 0.117954 -0.0254601 0.0314223 0.00616361 -0.00769444 0.0110381 -0.0296498 0.0170003 0.0128106 -0.0467306 0.0889493 0.00906413 0.0232042 0.0293275 0.0428632 -0.056399 -0.0212705 0.0605886 -0.0779918 -0.0281995 0.0680011 -0.0796032 0.0534985 0.0159529 -0.0531762 0.000981947 -0.0116827 0.00400836 0.0161946 0.0181283 -0.0592995 0.0399627 0.132779 -0.0335171 0.105063 -0.0212705 0.00523705 0.0870156 0.0770249 -0.00445149 -0.00850014 0.0618778 0.00688874 -0.0480197 0.00263867 -0.0528539 0.0275549 -0.0164363 0.0734798 0.0099504 -0.000470831 0.0534985 0.0307777 0.0235264 -0.0647783 -0.056399 -0.0164363 -0.125689 -0.058655 -0.00765415 -0.0622 -0.0251378 0.0222373 0.0699348 0.0331948 -0.0480197 0.010313 0.147604 -0.0137775 -0.0211093 -0.00692902 -0.0512425 0.0947503 -0.0311 0.0796032 -0.0132941 0.0220762 -0.038029 -0.0113604 -0.0583327 0.0100713 0.0285218 -0.0473752 0.106352 0.0889493 0.00890299 0.0396404 0.0251378 -0.0232042 -0.0660674 -0.0150666 -0.0227207 0.0457638 -0.0844374 0.0634892 0.0365788 0.000891306 0.0631669 -0.000279477 0.0438301 -0.126334 0.0792809 -0.0186117 -0.0113604 -0.147604 -0.086371 -0.0389959 0.0194174 0.0051162 -0.0815369 0.0560767 0.0876602 0.13858 0.0670343 0.0401239 0.0599441 -0.0741244 -0.0744467 -0.0567213 -0.0960395 -0.0222373 0.0451192 -0.113443 0.0486643 0.0184505 -0.0100713 -0.0150666 0.013858 -0.0738021 0.0470529 0.0246544 -0.0211093 -0.0125689 -0.0415741 -0.0422187 -0.00580104 0.0683234 -0.0418964 0.0375456 -0.00890299 -0.0275549 -0.0496311 -0.0365788 0.0799254 0.021915 0.00821814 -0.0341617 0.0657451 0.0509202 0.0211093 -0.00652617 0.137936 -0.0895939 -0.0117632 -0.0776695 0.0808923 -0.0406073 0.0502757 0.0254601 -0.0522094 -0.0315834 0.0309389 -0.021915 0.0269104 0.00733187 0.0618778 -0.0179671 -0.0876602 -0.00676788 -0.00962812 -0.074769 -0.0128912 0.0170808 0.0538208 0.0570436 0.0947503 0.00238689 -0.0921721 -0.0107158 -0.0973286 0.0609109 -0.0012438 -0.0895939 0.0232042 0.0895939 -0.0802477 0.0369011 -0.00216532 0.014422 0.0130523 0.109575 -0.00277967 -0.013858 0.0525316 -0.139225 0.112798 -0.0248156 -0.0040285 -0.0889493 -0.0251378 -0.11022 0.00376665 0.0605886 0.0240099 0.0837928 0.00588161 0.0340005 -0.0134552 -0.0583327 -0.109575 -0.0915275 0.00874185 0.122466 0.0165974 -0.0857265 -0.135358 0.0401239 -0.0734798 0.0738021 4.53206e-05 0.0256213 0.100551 -0.0177254
it 0.0552154 -0.000230646 0.0347889 0.0651095 -0.0970259 -0.040853 0.0368635 -0.0424488 0.0430872 0.0122878 -0.0606412 -0.152561 -0.0434063 -0.0842594 -0.134049 0.0148411 0.0430872 0.0309589 0.0887277 -0.091281 0.0225011 0.0533004 0.0596837 -0.0868127 0.0810677 -0.0148411 -0.0386189 -0.0186711 0.0088967 0.0256927 -0.0443638 0.0628754 -0.0529813 -0.0529813 0.0491513 -0.0280865 -0.00666255 0.0031318 0.0331931 0.093196 0.0555346 -0.0253736 0.111069 -0.0336718 -0.0667053 0.0558537 -0.0343102 0.0379805 0.0193892 0.0234586 0.102133 0.00428877 0.0201871 -0.028246 0.0319164 0.012208 0.00172548 -0.046598 0.00504678 -0.00172548 0.00841796 0.0577687 -0.0558537 -0.0105324 -0.0574496 -0.0223415 0.00115198 0.00674235 -0.0488321 0.0609604 0.0580879 -0.0136443 0.0411722 -0.0574496 -0.0437255 -0.00630349 0.083621 0.0900043 0.0561729 0.111707 0.0344697 -0.108516 0.0794719 0.00365044 -0.106601 -0.021384 0.0386189 0.157029 0.002673 -0.0322356 0.000708146 0.0226607 -0.0191499 -0.0568112 -0.0580879 -0.0402147 -0.0331931 0.00436856 0.0205861 0.0149209 -0.0797911 0.0314377 0.0189105 0.105324 -0.093196 0.0103728 -0.0526621 -0.0797911 -0.00574496 -0.125751 -0.0112505 -0.00706151 -0.0150805 -0.0472363 0.0421297 0.0475555 -0.00466778 -0.00363049 -0.0226607 0.0714928 -0.132134 -0.0472363 -0.0523429 0.0900043 -0.132134 -0.017554 -0.0307994 -0.0274481 0.0202669 -0.0676628 -0.0813869 -0.00208454 -0.0533004 -0.0370231 0.021384 -0.0186711 0.0400551 -0.0140432 -0.0260119 0.0248948 0.093196 -0.128304 0.0743653 -0.0737269 0.00630349 -0.0386189 -0.0983026 -0.0335122 -0.062237 0.0450022 -0.00897649 0.023299 -0.148731 0.0199478 -0.0343102 0.00243363 -0.0533004 -0.0491513 -0.0443638 -0.00953503 -0.0181126 0.0848977 0.0347889 0.0424488 -0.0268098 -0.0762803 0.0331931 -0.0347889 0.0343102 0.0118889 -0.0328739 0.0600029 -0.0970259 -0.0201073 -0.0346293 -0.00566517 0.085536 -0.114261 0.016437 -0.0472363 -0.0497896 -0.0692586 -0.0545771 -0.0376614 0.0368635 -0.0450022 0.017953 0.0564921 0.0900043 0.0469171 -0.0242565 0.0384593 -0.0113303 -0.0135645 -0.0405339 -0.085536 -0.060322 0.0714928 0.0307994 -0.091281 0.0107718 0.0303206 -0.0287248 0.102133 0.0371826 0.00670245 -0.0501088 -0.00614391 0.0794719 -0.010692 0.0327143 0.0900043 -0.038938 0.071812 -0.135964 0.0944726 0.071812 0.00335122 -0.0456405 0.032076 0.0381401 0.0434063 -0.0236182 -0.00550558 0.067982 -0.0430872 0.044683 0.038938 0.0236182 0.0750036 -0.00216433 -0.027129 0.046598 -0.0976643 0.0229798 -0.0225011 -0.0944726 -0.0580879 0.0801102 -0.0115697 0.062237 -0.116176 -0.0343102 -0.0628754 -0.0462788 -0.0209053 0.0155593 0.00881691 -0.000228153 0.0125272 -0.0600029 -0.0159582 0.0357464 -0.0657478 0.103409 0.0434063 0.0743653 0.066067 -0.039736 -0.0619179 0.0584071 -0.0122878 -0.095111 -0.0193892 -0.0215436 0.0539388 0.0352677 -0.0593646 -0.083621 0.0157188 0.109793 0.091281 0.183839 0.012607 0.0354272 -0.064152 -0.0405339 -0.0635137 -0.0714928 0.0104526 -0.00412919 0.0118889 0.0478746 0.0437255 0.0336718 -0.0683012 0.0187509 -0.0263311 0.0089366 0.0615987 -0.0215436 0.0963876 -0.102771 0.00634339 -0.089366 0.0209053 0.0775569 0.0111707 0.039736 -0.0711736
be -0.119318 -0.0461464 0.0667975 0.0785253 -0.0382429 0.0451266 0.0333988 0.0504806 0.0304668 0.074956 -0.0152971 -0.0973918 0.00624633 0.0258777 0.0382429 0.0662876 0.0225633 0.0647579 -0.0175917 0.00280448 0.0116641 -0.0316141 0.101471 -0.00199182 0.0698569 -0.00211929 -0.10708 -0.0302119 0.0678173 0.00905081 -0.0502256 -0.00688371 -0.110139 0.0810748 0.150932 -0.0379879 0.0280448 -0.0121102 0.0502256 0.00250172 0.126456 0.0739362 0.0420671 -0.0354384 -0.024093 -0.0476761 0.029447 0.0989215 0.00080071 0.047931 0.0568544 0.0688371 0.042832 -0.0364582 0.0359483 0.000649332 0.0540499 -0.0197588 0.0239655 0.00815848 -0.0400275 0.0085409 -0.0382429 0.0474211 -0.0451266 0.0221809 -0.0441068 0.103001 -0.0382429 0.0877036 0.0207786 0.0469112 0.10504 -0.0263876 0.023838 0.00962445 0.0999413 0.0407924 0.0122377 0.111669 0.064248 -0.090763 0.063993 -0.0351834 0.0344186 0.0395176 -0.0191214 0.058639 0.0550697 0.00207149 0.00768044 0.0108355 0.00599138 -0.0780154 0.0573643 -0.0469112 0.0333988 0.02677 -0.0232007 -0.0359483 -0.0188665 -0.0456365 0.0509905 0.0596589 -0.113199 -0.0548148 -0.0673074 -0.0841343 -0.00532213 -0.00471662 0.0466563 0.00297976 -0.0182291 -0.0423221 -0.0272799 -0.0520103 -0.0251128 -0.0775055 0.121867 0.0438518 0.0311042 -0.0594039 -0.0407924 0.064248 -0.0826046 0.031869 0.0169543 0.000948104 0.085664 -0.0249853 0.0471662 -0.00943324 -0.0326339 -0.0662876 -0.0362032 -0.0377329 5.353e-05 -0.0489509 -0.0230732 0.0718966 0.074956 -0.0423221 0.0132575 0.0217984 0.0101981 -0.0543048 0.0168269 -0.0509905 -0.0520103 -0.0251128 -0.0999413 0.0548148 -0.0476761 -0.0142773 0.0172093 -0.0871937 -0.0356933 -0.10708 -0.047931 -0.0133213 0.0527751 0.0571093 0.0420671 -0.0093695 0.0308492 -0.0402825 -0.0215435 0.0221809 -0.0423221 0.0237106 -0.118808 -0.164189 -0.101471 -0.0871937 -0.0438518 -0.0650128 0.00943324 -0.053285 0.0356933 0.058639 0.0131938 -0.0537949 -0.0308492 0.111669 -0.0698569 -0.00949697 -0.00662876 0.00621446 0.0657777 0.0917828 -0.00361714 0.0497157 0.00968819 -0.029702 -0.0594039 -0.0599138 -0.0734263 -0.05354 0.00372868 -0.0474211 0.0576192 -0.047931 -0.0312317 -0.0093695 -0.0392627 0.00174483 -0.0568544 -0.012174 0.0775055 0.0209061 -0.0418122 -0.0861739 0.0527751 0.0545598 -0.115238 0.0221809 0.0596589 -0.0877036 -0.0629732 -0.023838 -0.0221809 -0.112179 -0.0333988 -0.0820947 0.0831145 0.0126201 0.0220534 0.0785253 0.0550697 0.00120306 0.0341636 0.0137037 -0.0637381 -0.0377329 0.118298 0.0098794 -0.111669 0.0256227 0.0476761 -0.00474849 0.0126201 0.0415572 0.0724065 -0.0305943 -0.0413023 -0.0258777 -0.0289371 -0.00764857 -0.074956 0.0188665 -0.026515 -0.0237106 -0.0314866 0.0322515 0.0713867 0.0300844 0.0197588 0.0662876 -0.0172093 -0.058894 0.103001 -0.1081 -0.0520103 0.164189 0.0410473 0.138694 0.0207786 0.0438518 0.00812661 -0.0576192 0.0999413 0.0509905 0.0688371 0.085664 0.0191214 0.00758483 0.00436606 -0.111669 0.0311042 -0.0254952 0.0703669 0.0202687 0.0344186 -0.0196313 0.0446167 -0.0266425 -0.0583841 -0.0754659 0.0522652 0.10606 -0.0573643 0.0339087 0.0611886 0.0237106 0.112179 0.0224358 -0.0729164 -0.111159 0.0984116 -0.0759758
from 0.0348454 -0.00010466 0.0456797 0.0319173 0.0150802 0.012518 -0.0415803 -0.0796467 -0.0415803 0.0983872 -0.0629561 -0.0480223 -0.0325029 0.0176423 -0.0611992 -0.0152998 0.0855031 0.0907739 -0.0114931 0.00838194 -0.0453869 0.0568069 -0.0773042 -0.0453869 -0.0046668 -0.080818 0.0294283 0.0972159 0.0708622 -0.0190332 0.0439228 -0.104244 -0.0471438 0.00058335 -0.0995584 0.0676412 -0.0708622 -0.0652986 -0.0919451 0.0925308 -0.0226935 -0.0486079 0.0159586 -0.017862 -0.0459726 -0.00426418 -0.080818 -0.0682268 -0.0244504 0.0284034 -0.0262073 0.00603939 0.00860156 -0.0377736 -0.0386521 0.110686 -0.0831606 0.074376 0.050072 -0.0696909 -0.0948733 -0.0092238 -0.0276714 -0.130012 0.0696909 -0.0101755 0.0184476 0.101901 0.0392377 0.08726 0.0295747 -0.168664 0.0603207 -0.0228399 -0.0294283 0.101901 0.0489008 0.0151534 -0.0294283 -0.0948733 -0.00911399 -0.0155194 0.0626632 0.0632489 -0.0317709 -0.114199 -0.0600279 -0.0819893 -0.0755473 -0.00406286 0.0221078 0.13294 -0.0705694 -0.0370416 0.0122252 -0.0248896 -0.0439228 0.0101755 0.056514 0.0688124 -0.0168371 -0.0506577 0.0197653 -0.037188 0.00764989 -0.0617848 0.0301603 -0.0279642 0.0524146 -0.0588566 -0.0361631 0.0535859 0.0344062 -0.0194725 0.0117128 0.0966302 0.0418731 0.0907739 0.0527074 0.0907739 -0.0591494 0.0152998 -0.0573925 0.0617848 -0.0322101 -0.0224006 -0.0221078 -0.0761329 0.00856495 0.0559284 -0.0319173 -0.0603207 0.00845515 -0.0386521 -0.00710086 -0.12357 0.0266465 -0.0691053 -0.0131036 0.0202045 -0.0122252 0.028257 0.00177521 0.0251824 0.0825749 -0.0263537 0.0380665 -0.0294283 -0.0682268 0.0278178 0.0901882 0.0430444 0.0489008 0.0972159 -0.080818 -0.031478 -0.0650058 -0.00389815 0.00283668 -0.0330885 0.00915059 0.0843318 0.0259145 -0.0163247 -0.021083 -0.0106147 0.0248896 0.080818 0.0259145 -0.0209366 -0.116542 -0.0925308 -0.0506577 -0.0611992 -0.0298675 -0.00446549 -0.0237183 0.0240112 -0.019326 0.00567337 -0.0270857 -0.0983872 -0.0465582 0.0611992 -0.0448013 0.00475831 -0.0620776 0.0226935 0.0720335 0.0165443 0.0421659 -0.0459726 0.0401162 0.00980943 -0.149923 0.00426418 -0.0907739 -0.120056 -0.0174227 -0.0442157 0.0323565 -0.0329421 -0.0348454 0.0216686 -0.0486079 0.145824 -0.021083 -0.0374808 -0.0303068 0.00364194 -0.0427516 -0.0305996 -0.0603207 0.0185208 0.0164711 0.00827213 0.0141285 0.0749616 0.0213758 -0.0512433 0.0031478 -0.0221078 0.0855031 -0.0650058 0.0176423 -0.0358703 -0.0790611 0.0046119 0.12357 -0.0349919 0.095459 -0.142896 -0.0253288 -0.0265001 -0.0132501 -0.0354311 0.012884 -0.0357239 -0.0164711 0.0843318 -0.0222542 -0.0284034 0.0802324 -0.0676412 0.0541715 0.0600279 0.0535859 0.0129572 0.0518289 0.0720335 0.095459 -0.019326 0.0553428 0.00497792 0.0191796 0.012884 0.0837462 0.129426 -0.0188868 -0.0301603 -0.024304 0.0241576 0.0386521 0.0421659 0.0819893 -0.0311852 -0.0450941 0.0773042 0.0749616 -0.0556356 0.0960446 -0.0285498 0.0244504 -0.0360167 0.0995584 -0.095459 -0.0547571 -0.0310388 -0.0101755 0.0266465 -0.0814037 -0.074376 -0.0450941 0.0658843 -0.0257681 0.0691053 -0.08726 -0.0553428 -0.0281106 -0.0151534 -0.178034 0.0351383 0.000947086 0.0093702 -0.00585638 0.0819893 0.0667627 0.00607599 0.0386521 -0.0177887
by -0.0693818 -0.0188824 0.0954365 0.083141 -0.00303728 0.0169063 -0.0203461 -0.0693818 0.0194679 0.083141 -0.0600138 -0.076115 -0.0237128 -0.0109781 0.000140657 -0.0483038 0.0270794 0.0588428 -0.033959 0.0360083 0.0532805 0.0301533 -0.00988032 -0.0333735 0.128225 0.00856294 -0.0790425 0.0191751 0.0186628 0.0755295 -0.00208584 -0.0930945 -0.101292 0.084312 0.096022 -0.0225418 -0.0567935 -0.02342 0.102463 -0.0307388 0.087825 0.0576718 -0.0159549 0.02342 0.0813845 0.031617 -0.0248838 -0.0311779 0.0942655 0.056208 0.00340322 0.076115 -0.00318366 -0.0288359 0.0324953 0.100121 0.0231273 0.0207853 -0.0588428 -0.0447908 -0.0802135 0.0161744 -0.0623558 -0.0149303 -0.0462545 -0.0141984 -0.000731875 0.0638195 0.0262011 0.117686 -0.0132469 -0.0477183 0.0149303 0.0232736 -0.0064771 0.135836 0.0521095 0.102463 0.030446 0.0462545 -0.000782192 0.00386064 0.0250301 0.0151498 0.055037 -0.048011 -0.0403995 0.0240055 -0.021078 -0.042156 -0.0567935 0.108903 -0.0453763 -0.0342518 0.172137 0.0685035 -0.087825 -0.00966075 -0.00342152 -0.0259084 0.131152 -0.0646978 -0.0308851 0.057379 -0.0241519 0.0693818 -0.0459618 0.0286895 0.0168331 -0.0623558 0.038643 0.0291286 -0.0427415 0.0196143 -0.0403995 -0.0488893 0.0262011 0.000658688 0.102463 0.118857 -0.073773 0.10539 -0.111245 -0.00475719 0.0370329 0.0200534 0.0342518 -0.00131738 0.119442 0.0392285 -0.00169246 0.0591355 0.00233285 -0.052695 -0.0450835 0.0151498 -0.0367401 -0.0330808 -0.076115 -0.00360449 0.0825555 -0.0200534 -0.0442053 0.04684 0.0250301 -0.0355691 0.0352764 0.000555768 0.0518168 0.055037 0.0323489 0.0248838 0.08197 0.113587 0.0506458 -0.087825 -0.0352764 -0.099535 0.0200534 0.00312877 -0.00592819 0.0497675 0.0297141 0.0638195 -0.073773 -0.00684303 0.0064405 -0.0447908 -0.0188824 0.00742853 -0.087825 -0.124126 -0.0412778 -0.0942655 -0.116515 -0.052695 -0.0272258 0.0512313 -0.0333735 -0.0500603 -0.0307388 -0.098364 -0.07026 0.0676253 -0.036301 0.0106854 -0.0204925 0.0635268 0.050353 0.0310315 0.036301 0.0076481 -0.00607456 0.0176382 -0.0483038 -0.05855 -0.00287261 0.00918503 -0.0129542 -0.0197606 0.074944 -0.021078 -0.0471328 -0.009368 -0.00724557 0.096022 0.039814 0.0357155 0.0500603 -0.0521095 -0.0326416 -0.098364 0.0582573 0.060892 0.00574522 0.0141252 0.050353 -0.0251765 -0.0244446 0.0289823 -0.0147839 -0.0406923 0.0365938 -0.105976 0.021078 0.0282504 0.0164672 0.084312 0.160427 -0.0307388 0.0565008 -0.0313243 0.018736 0.0201998 -0.0524023 -0.0544515 0.00622094 0.066747 -0.052695 0.00607456 -0.110074 -0.037472 0.120613 -0.00534269 0.0143448 0.078457 0.18736 0.055037 -0.0626485 0.0132469 0.0349836 -0.086654 -0.0626485 0.0588428 0.043327 -0.108318 0.0693818 -0.0174186 0.0518168 -0.0544515 0.0450835 0.0403995 0.00933141 0.0676253 -0.00720897 0.077286 -0.00944119 0.083141 0.104219 0.00380575 0.0442053 0.0401068 -0.071431 0.0547443 0.0104658 -0.0532805 -0.0330808 -0.0711383 0.073773 0.00336663 0.0204925 0.0872395 -0.0349836 -0.0251765 0.0942655 0.0415705 -0.085483 -0.0235664 0.0488893 0.0361546 -0.0728948 -0.0447908 -0.0415705 0.021078 -0.0193215 0.0285431 -0.127639 0.0157353 -0.037472 -0.0248838
grandmother 0.0489315 -0.0683071 0.0385869 0.00533649 0.0972063 0.0142854 -0.0152706 -0.0302128 0.0160916 0.0476179 0.0906383 -0.13333 -0.0290634 -0.0267646 -0.0149422 -0.0285708 0.00245273 0.0893247 -0.0512303 0.0208534 0.0607539 0.0300486 0.0745467 -0.0334968 0.0466327 -0.0791443 -0.0742183 0.0122329 0.0403931 -0.0765171 0.0512303 -0.00722479 -0.0673219 0.0155169 0.00779949 0.0256152 0.106401 0.018883 -0.0472895 0.0333326 0.0300486 -0.0226596 0.118224 -0.0834135 0.117567 -0.0108372 -0.0418709 0.0231522 -0.0197861 -0.0525439 -0.00820999 0.0346461 0.0515587 -0.020525 -0.0025451 -0.0430203 -0.109685 0.0377659 0.0581267 -0.0738899 0.0482747 0.0402289 0.0505735 0.00545964 0.0715911 0.0233164 -0.0538575 -0.00100572 0.0610823 -0.0300486 0.106401 0.0293918 -0.0945791 0.0499167 -0.0594403 0.148437 0.0389153 -0.0952359 0.0669935 0.0912951 0.111656 0.0116582 5.90093e-05 -0.0886679 -0.0817715 0.0768455 -0.102461 0.0945791 0.0182262 -0.023809 -0.0453191 -0.0656799 -0.0512303 -0.0814431 0.0367807 -0.00196013 -0.00976989 0.0137928 0.00689639 -0.0449907 -0.0568131 -0.13333 0.114283 -0.0709343 -0.0617391 -0.0676503 -0.0433487 0.0145317 0.0116582 -0.0121508 -0.0150243 0.11494 0.00677324 0.00342767 -0.022988 -0.0288992 -0.0591119 -0.0162558 -0.00747109 -0.0269288 -0.0236448 0.00997514 0.00277087 -0.0256152 -0.0264362 0.0765171 0.0259436 0.0236448 -0.0528723 0.0134644 -0.0512303 0.000338662 -0.0234806 0.0472895 -0.0277498 0.0522155 -0.022988 -0.00554174 0.0574699 0.0236448 0.0748751 0.0367807 -0.000738899 -0.00636274 0.0482747 0.11691 -0.0952359 0.0387511 -0.0686355 -0.0643663 0.124792 -0.0148601 -0.00433077 0.0830851 -0.0330042 0.0264362 -0.0231522 -0.0430203 -0.00603434 -0.0210176 -0.0149422 0.0538575 0.0574699 0.0399005 -0.0146959 -0.0162558 0.0752035 -0.0169126 0.0768455 0.0729047 0.0183904 0.0211818 -0.00346872 -0.0463043 -0.0633811 -0.028735 0.0945791 0.0364523 0.0220028 0.102461 -0.0362881 -0.0264362 0.0486031 0.0109193 0.0472895 -0.00640379 0.0146959 0.109685 -0.0362881 0.0125613 -0.0752035 0.0692923 0.0353029 0.0210176 0.0252868 0.11494 0.0316906 -0.023809 0.00486442 0.014778 -0.174709 -0.0577983 -0.022988 0.00931834 0.0541859 -0.000293764 0.0280782 -0.0334968 0.0663367 -0.139241 0.00767634 -0.0449907 -0.0725763 -0.0397363 0.0346461 0.00689639 -0.022988 0.0472895 -0.0191293 -0.0251226 0.0446623 0.0266004 0.103117 -0.0210176 0.000918492 -0.108372 0.0627243 -0.0663367 0.00324295 -0.0224954 0.0236448 0.0627243 -0.0912951 0.0919519 0.0115761 -0.0394079 -0.0420351 -0.0177336 -0.0339894 0.0251226 0.00506967 -0.0666651 -0.0610823 -0.0476179 -0.00611644 0.185217 0.0108372 0.0142033 0.0899815 -0.106401 0.0236448 0.0683071 0.0991767 0.0137928 0.0443339 -0.0505735 -0.0216744 -0.00523387 -0.0610823 0.00340714 0.0591119 -0.0247942 -0.0233164 -0.0650231 -0.0247942 0.0604255 -0.018883 -0.0121508 -0.0551711 -0.00623959 0.0366165 0.0610823 0.0130539 0.0367807 0.0965495 -0.0158453 0.0551711 -0.00636274 -0.0349745 -0.0866975 0.101804 -0.0482747 0.00447444 0.0325116 -0.0978631 0.00433077 -0.0192114 0.0847271 -0.0958927 0.177336 -0.0417067 -0.02463 -0.137928 -0.0788159 -0.0132181 0.030377 -0.0267646 -0.0660083 0.0449907 -0.0272572
grandfather 0.044966 -0.0219796 0.0600665 -0.0243286 0.0771804 -0.0701335 -0.0151005 -0.0261742 0.0657711 0.0283554 0.14228 -0.15369 -0.0523485 -0.0469794 -0.0842273 -0.0577175 -0.0134227 0.163086 -0.0384224 -0.0389258 0.00238043 0.0560397 0.0271809 0.0421137 0.0370802 -0.0307044 -0.0812072 0.0216441 0.00809556 -0.0614088 0.0570464 -0.0322144 -0.0338923 0.102684 0.0859052 0.0587242 0.140938 -0.012416 0.00250627 0.038758 0.0805361 0.0207213 0.0755026 -0.0912742 0.0600665 0.00222313 -0.042617 -0.00763415 -0.0204696 -0.133556 -0.0218119 -0.00473988 0.042617 -0.0919454 0.0123321 -0.0137582 -0.10067 0.00285232 -0.0249997 -0.0313755 0.0593954 0.00446724 0.0231541 -0.0244964 0.0640933 0.0374157 -0.0543619 -0.0360735 0.0390936 -0.0401003 0.0932876 -0.00469794 -0.0906031 -0.0061241 -0.116777 0.0855696 0.0442948 -0.0367446 0.055033 0.0661067 0.125502 0.0228186 -0.0119126 -0.089932 -0.00901836 0.0233219 -0.116106 0.0926165 -0.0367446 -0.0654356 -0.0687912 0.0200501 -0.0711402 0.0147649 0.0171139 -0.0332211 -0.00864085 0.00792777 0.0313755 -0.0912742 -0.0620799 -0.0687912 0.0657711 -0.0380869 -0.0347312 -0.0260064 -0.0357379 0.0634222 -0.016275 0.052684 0.0285232 0.0973144 -0.03104 -0.0667778 0.0401003 -0.0453015 -0.0439593 -0.00738247 -0.0145972 0.0101509 -0.0187918 -0.00260064 0.0226508 -0.0298655 -0.00654356 -0.00553686 0.0295299 0.00459307 -0.0587242 0.0691268 -0.0580531 -0.0271809 -0.0380869 -0.0178689 -0.00364929 0.0651 -0.0557041 0.138925 0.0414425 0.0520129 0.0553686 0.0620799 -0.0697979 -0.0704691 0.0422814 0.0617443 -0.0892608 -0.0214763 -0.041107 0.00864085 0.077516 0.0355701 -0.0533552 0.0577175 -0.0370802 0.042617 -0.0231541 0.0115771 0.0456371 -0.0892608 0.0397647 0.0315433 -0.0109898 -0.0442948 0.0671134 0.0071308 0.0812072 -0.00419459 0.0243286 0.0681201 0.0424492 0.0634222 0.0317111 -0.122146 -0.00578853 -0.0255031 0.0768448 0.0153522 0.0416103 0.0210568 -0.0617443 -0.047315 0.0243286 0.0308722 0.0647644 0.0150166 0.102012 0.0761737 0.0243286 0.0604021 -0.0748314 0.127515 -0.0114093 0.0533552 0.0721469 0.0530196 0.0275165 -0.0246642 0.0150166 0.011661 -0.142952 -0.0416103 -0.0173656 -0.0303688 0.0778515 0.0570464 0.022483 -0.0496639 0.00261113 -0.0872474 -0.00289427 -0.0563753 0.0414425 0.0536907 0.0563753 0.00244335 -0.0156878 0.038758 -0.0216441 -0.0261742 0.00148908 -0.0357379 0.0986567 -0.0718113 0.00981534 -0.0771804 0.00072881 -0.018624 -0.0178689 -0.0266776 0.036409 -0.03104 -0.0563753 0.0671134 0.0118287 -0.0300332 -0.0160233 -0.0307044 -0.0704691 0.0105704 0.00679523 -0.0959722 -0.0644289 0.0270131 0.00973144 0.095301 0.0166945 0.000524323 0.101341 -0.0778515 0.0218119 0.0513418 0.0681201 -0.0241608 0.0112415 0.00108535 0.000247743 -0.0503351 -0.135569 -0.0392613 0.0724825 -0.0466438 0.0523485 -0.00562075 -0.0463082 0.0479861 -0.000865134 -0.0657711 0.0296977 0.0340601 0.0667778 -0.0640933 0.0520129 0.0476505 0.0912742 -0.0885897 0.00494961 -0.0135066 -0.0315433 -0.0417781 0.0553686 -0.0577175 0.0253353 0.0973144 -0.0838918 0.0479861 -0.0973144 0.114093 -0.0496639 0.110066 -0.0697979 -0.00227556 -0.145636 -0.0838918 0.0111576 0.0174495 -0.117448 -0.0604021 0.052684 -0.00910226
